-0.43908370029690874,-0.29258345767286975,0.14920427529000002,-0.075068999767459718,-0.025084454600566821,0.1835055288426492,0.59920993957610702,-0.78375146838437082,-1.110314580211192,-0.19367916052163434,-0.29649767972133884,0.37502809719766506,0.37502809719766522,-1.1375934464925339,0.97130931057266945,-0.31351901685024924,-0.74953373238191612,-0.0076672091723444177,0.044003252799782754,0.015738384011940394,-0.033446553196509417
-0.44347021256946823,-0.29876936670512361,0.14809724363000001,-0.076536829371851384,-0.023608898447592307,0.18457866059026698,0.59371013936956551,-0.76930902871493423,-1.0770326402009081,-0.19554189172943223,-0.19699646512956681,0.19108332766095665,0.3734728695006071,-1.1834240594520951,0.99019010168551846,-0.26914915773505377,-0.80296331898331152,-0.0071039655509706366,0.043905423641012284,0.016031871488250891,-0.031881286656186461
-0.44635079193155397,-0.30297825612157597,0.14732983995000001,-0.077794969032758537,-0.022669908168426699,0.18538350940098047,0.58982003678445094,-0.72262714751672197,-1.0948896174495786,-0.19848388441558443,-0.29612540889085431,0.37560613900488538,0.18900469015200078,-1.1434495293624412,1.0133190707987583,-0.2502683666222047,-0.71297664681252859,-0.0069162176771793765,0.04419891111732277,0.014075288312847423,-0.031294311703565461
-0.45008859464267864,-0.30861585111975987,0.14628243763000001,-0.079472488580634729,-0.021328493483904414,0.18632249968014603,0.58458851951481394,-0.67466480184916544,-1.0664056545357774,-0.19726556318838917,-0.29479490809825315,0.37286265370651117,0.18787454419717031,-1.1356329798453153,1.0279516839112166,-0.21911506128600403,-0.78327873444595808,-0.0071665481755676273,0.044688056911173758,0.014270946630387906,-0.031098653386025438
-0.45340164704572095,-0.3138209730769872,0.14529984981000002,-0.080940318185026408,-0.019852937330929892,0.18699320702240715,0.57962528518208145,-0.67108455496916697,-1.0607465546286832,-0.19985241333808842,-0.29690743490622495,0.36411203656292129,0.19140700117447917,-1.0923361096887638,1.0402241981345681,-0.17521722194863121,-0.8592049890900525,-0.0076046265477471365,0.044883715228714247,0.013977459154077405,-0.030120361798323472
-0.45635173100367471,-0.31863223565762905,0.14437300246000001,-0.082617837732902599,-0.018511522646407604,0.1875297728962162,0.57519861672315797,-0.63142781915416046,-1.0233485344912256,-0.20466562155647383,-0.29609136170385914,0.37882722838262428,0.30170298136879226,-0.96468280574679721,1.0727935628042324,-0.11149455194276624,-0.80858748599398955,-0.0069162176771793765,0.04507937354625427,0.012901338407605427,-0.030316020115863956
-0.45954121968072947,-0.32406131686820888,0.14329967434000002,-0.08429535728077879,-0.016633542088076395,0.18793219730157287,0.57036952385887785,-0.58933547068923153,-1.0258802637923661,-0.205171957309706,-0.29533583169463745,0.41541320290712658,0.075622156107384542,-0.83082640581425304,1.098282630806579,-0.066652673049750311,-0.76921831691926956,-0.0074168786739558764,0.04537286102256477,0.012216534296214412,-0.030609507592174453
-0.46234457171407295,-0.3290733705035806,0.14228467927000002,-0.085972876828654982,-0.014755561529745189,0.18833462170692955,0.56594285539995415,-0.54483463414274913,-1.0024957268226584,-0.20485373334099266,-0.29951786676195796,0.38746984404749518,0.075614407235087666,-0.77493968809499036,1.1148033230303211,-0.025586952379302433,-0.78609081795129054,-0.0073542960493588874,0.046742469245347251,0.012118705137443947,-0.030316020115863956
-0.46534099206927204,-0.33471868823463868,0.14112709230000001,-0.088069776263500224,-0.012475156566057296,0.18887118758073837,0.56071133813031715,-0.50289451940893426,-0.98392405971313224,-0.20552670105469426,-0.29561552182968664,0.38218882018998662,0.12637746652927329,-1.1465664605699599,1.1431245096995948,0.041439856071310129,-0.69329206227517504,-0.008167870169121209,0.044883715228714247,0.01270568009006494,-0.031881286656186461
-0.46726395255495395,-0.33851055007588293,0.14033117024000002,-0.089537605867891903,-0.010999600413082778,0.18940775345454727,0.55708951848210697,-0.47816348059685698,-0.95632696119371385,-0.20430213635061586,-0.29653458672569682,0.37696353971258789,0.18905140359353395,-0.75392707942517578,1.173805795257975,0.08864183385343273,-0.52456705195495212,-0.0077923744215383974,0.045568519340105265,0.012216534296214413,-0.031489970021105949
-0.46980473167057385,-0.34389329488921744,0.13918136101,-0.091844195246221658,-0.0087191954493948849,0.19034674373371296,0.55185800121247008,-0.43810757254608118,-0.94193128097407453,-0.20590644898666205,-0.59478136576460872,0.38432868527445174,0.19024773335506873,-0.76865737054890348,1.1860783094813268,0.12073917874527655,-0.5189428849442741,-0.0079175396707326668,0.047622931674278751,0.011825217661133447,-0.030707336750944468
-0.47184353314936911,-0.34858099374387169,0.13816506965000003,-0.093941094681066914,-0.0067070734226114502,0.19135280474710462,0.54723012055086817,-0.39368307068102287,-0.94046511329355464,-0.20558594430992735,-0.59385555595971751,0.38633403515950931,-0.041059433190615779,-0.99269480487297979,1.1941026457042876,0.13773189074683936,-0.59486913958838161,-0.0086685311658977089,0.046938127562887733,0.011482815605437941,-0.030658422171559459
-0.4738051072994221,-0.35343859272175893,0.13708655637,-0.096247684059396682,-0.0044266684589235571,0.19148694621555684,0.54360830090265799,-0.34781503776876377,-0.91301447414300474,-0.20433725590190241,-0.59024859464114487,0.37871836998366376,0.34317205041305493,-0.97418396404577545,1.2092072785945664,0.19531830364102962,-0.55549997051366162,-0.0084807832921064488,0.047818589991819233,0.011091498970357203,-0.030854080489099718
-0.47531876294277015,-0.35751619567934945,0.13615322757000001,-0.09855427343772645,-0.0025486879005923507,0.19249300722894863,0.53938284464641284,-0.30754542757660142,-0.87870122164743258,-0.20649066531557617,-0.59646893304442716,0.37259412177517526,0.13036809133211963,-0.74518824355035052,1.2361124059303765,0.22411151008812363,-0.45145288081619012,-0.0087311137904949893,0.046155494292726251,0.010259951120810941,-0.032370432450037442
-0.47677063672312431,-0.3618563715546636,0.13514730653000001,-0.10107055275954074,-0.00040242440535668699,0.19302957310275748,0.53522445912439365,-0.283232658462162,-0.87148510296049864,-0.20113785928616554,-0.59157057794046164,0.37778476395779115,0.094623745098707468,-0.75556952791558207,1.2323362477078061,0.24299230120097268,-0.41208371174147013,-0.0085433659167037292,0.047818589991819226,0.0090860012155684951,-0.032272603291267424
-0.47814528317473631,-0.36672169326542509,0.13400916391000001,-0.1042159019118086,0.0018779805583312059,0.19343199750811416,0.53026122479166127,-0.21933240009613172,-0.85539636037491373,-0.19880518572584843,-0.59553786631654382,0.38347879642200594,0.075747042020124389,-0.76695759284401177,1.2313922081521631,0.29302639765002242,-0.39521121070944915,-0.008856279039688969,0.048992539897061219,0.0096729761681899444,-0.032566090767577924
-0.47911834751688859,-0.37085335535313518,0.13302268722000002,-0.10673218123362289,0.0037559611166624119,0.19370028044501869,0.52583455633273779,-0.17380792690242999,-0.82558765278654245,-0.20057344770072158,-0.29452518866839911,0.38336724868903072,0.063071673311950849,-1.1501017460670924,1.2219518125957385,0.32323566343058002,-0.44301663030017963,-0.0096072705348543026,0.0500686606435332,0.0087925137392579969,-0.032272603291267424
-0.47997557086592751,-0.37540976774892765,0.13189880379000002,-0.10987753038589076,0.0060363660803503059,0.19396856338192314,0.52087132200000519,-0.10978044228435645,-0.81237527290423772,-0.20269769915793739,-0.59615825416269796,0.38350111375870044,0.042512522990342028,-0.76700222751740077,1.229504129040879,0.34966877098856952,-0.42614412926815864,-0.0080427049199269379,0.049970831484763181,0.007227247198935494,-0.031979115814956938
-0.48042348937263252,-0.37848341543286901,0.13112751124000002,-0.11197442982073601,0.0075119222333248237,0.19396856338192311,0.51751778528869952,-0.10891061963779038,-0.78415646139209083,-0.19743545372337373,-0.59143471744142273,0.3789797353183661,0.042347103634702343,-0.75795947063673208,1.2153435357062412,0.36571744343449142,-0.39521121070944915,-0.008856279039688969,0.0503621481198437,0.0075207346752459887,-0.031489970021105956
-0.48082507148209219,-0.38259190932195641,0.13007622005000002,-0.11491008902951934,0.0097923271970127186,0.1939685633819232,0.51282283389287153,-0.065410215939013625,-0.76311918595515904,-0.19762835043103447,-0.59201255595846314,0.40970527466524181,0.042121255078519382,-0.81941054933048363,1.2049591005941758,0.38884641254773117,-0.52737913546028459,-0.0099201836578395406,0.051438268866315674,0.0058576389761530161,-0.032076944973726942
-0.48100269433819937,-0.38631426656733264,0.12909492852000001,-0.11805543818178721,0.011938590692248381,0.19396856338192309,0.5082620239654958,-0.021587530012875788,-0.73397602043777666,-0.19929518286958009,-0.58615104550342889,0.37204717918449359,0.041910532678151258,-0.74409435836898707,1.2035430412607122,0.40017488721543976,-0.66235914371646554,-0.010233096780825074,0.051242610548775186,0.0057598098173830027,-0.033544382355279442
-0.48096408067382823,-0.39034553312767784,0.12800085976,-0.12162016722102413,0.014218995655936274,0.19396856338192309,0.50316464816431083,0.021843577409389626,-0.72083805450985761,-0.19799247452210969,-0.59310332068616178,0.38073143273143917,0.041675104570056631,-0.76146286546287845,1.197878803926858,0.41197538166097092,-0.77765456743528005,-0.0097324357840482805,0.051731756342626167,0.0039010558007495418,-0.032663919926347942
-0.48079418055059531,-0.39308710329802754,0.12723604866000002,-0.12434613648632294,0.015962834745815252,0.19410270485037534,0.49954282851610071,0.043392342725183469,-0.6942774836029354,-0.19665637066796296,-0.58910090779350677,0.37198417373501275,0.0058571938873458462,-1.1159525212050383,1.1955187050377512,0.42141577721739548,-0.80577540248865709,-0.0087311137904949893,0.051927414660166663,0.0014553268314950879,-0.031685628338646431
-0.48037715297538719,-0.396956192468014,0.12611605410000001,-0.12833024541252891,0.018377381177955371,0.19396856338192309,0.49457959418336833,0.10902329227147509,-0.67594441208314548,-0.20129970364676131,-0.59204658162407364,0.37858782245867806,-0.025279985694199092,-1.1357634673760342,1.191742546815181,0.42519193543996353,-0.82545998702601053,-0.0098576010332425516,0.051438268866315674,-0.00079474382021888466,-0.03080516590971448
-0.47980567074269459,-0.40021518574093679,0.12513605886000001,-0.13168528450828129,0.020523644673191035,0.19396856338192314,0.49042120866134919,0.15236988737873389,-0.65301380305171675,-0.19729951790119915,-0.59102751010828269,0.37802315498598837,-0.025154392853747654,-0.75604630997197664,1.1992948632603215,0.42519193543996353,-0.87045332311140855,-0.0086059485413007199,0.051144781390005181,-0.0012838896140694098,-0.032370432450037442
-0.47890211099641028,-0.40379853379457692,0.12401865688000001,-0.13545970349100273,0.02307233257378339,0.19396856338192311,0.48559211579706896,0.19528787874722667,-0.62926094262995269,-0.20396326870281403,-0.58916829522290437,0.37771980039640896,-0.025012345775132783,-0.75543960079281791,1.1912705270373605,0.43321627166292448,-0.93231916022881445,-0.0087311137904949893,0.053101364565408649,-0.0017730354079203928,-0.031783457497416442
-0.47813756044186206,-0.40619258098558653,0.12324736433000001,-0.13797598281281703,0.024950313132114592,0.19383442191347092,0.48237272055421554,0.21753397502653612,-0.60909513007430127,-0.20082646466456425,-0.59065472899525562,0.37871836998366376,-0.0094855737347115388,-0.75743673996732741,1.1653094392571914,0.44784888477538282,-0.74109748186590563,-0.010107931531630802,0.052220902136477156,-0.0032404727894728841,-0.03080516590971448
-0.47682469585324389,-0.40955196978587421,0.12212866606000002,-0.14196009173902299,0.027633142501159176,0.19343199750811413,0.4778119106268397,0.26198716863413413,-0.5894711294268018,-0.20155455738907754,-0.59279613705917356,0.7664223816836182,-0.063171101783307704,-0.7664223816836182,1.1638933799237279,0.45256908255359618,-0.6961041457805075,-0.0096072705348543026,0.05212307297770713,-0.0033383019482433537,-0.031979115814956931
-0.47549638579887726,-0.41237849001784038,0.12115774485000001,-0.14573451072174443,0.029779405996394837,0.19316371457120976,0.47378766657327287,0.28255114762541544,-0.54336759158733738,-0.1933573790461186,-0.59014714830577242,0.37974411558322763,-0.054002161228570322,-0.75948823116645525,1.1662534788128345,0.44076858810806496,-0.65392289320045505,-0.010295679405422063,0.05329702288294913,-0.0043165935359448619,-0.03462050310175141
-0.47375877090217677,-0.41547530590040438,0.12005978722000001,-0.15013799953491944,0.032328093896987188,0.19289543163430528,0.46895857370899258,0.32960838613925197,-0.52737341782280311,-0.19179686099044307,-0.59664167238211741,0.38051158550154462,-0.054020012496291736,-0.76102317100308914,1.1587011623676962,0.45115302322013257,-0.56956038804033704,-0.0097324357840482805,0.05505794774081213,-0.0043165935359448637,-0.033740040672819917
-0.47252313364230086,-0.41732103905734408,0.11938571642000001,-0.15286396880021827,0.033937791518413939,0.19262714869740083,0.46600746140304361,0.37232694213062834,-0.50373645111790888,-0.19116573172843782,-0.59467835548304226,0.37599564291428444,-0.062983509680511141,-0.75199128582856889,1.1393483514770246,0.44784888477538282,-0.45426496432152258,-0.0090440269134802291,0.055253606058352611,-0.0070558099815098141,-0.032174774132496954
-0.47033760023889531,-0.42016300475505869,0.11831368459000001,-0.15705776766990875,0.036620620887458516,0.1922247242920441,0.46117836853876326,0.41680385084302657,-0.50455202996787429,-0.18779302409795307,-0.59564117460837618,0.76243198400043399,-0.075719098672135443,-0.76243198400043366,1.1228276592532822,0.4393525287746014,-0.42051996225748062,-0.010358262030019345,0.05417748531188063,-0.0084254182042922919,-0.032663919926347942
-0.46823701689710623,-0.4225416064803198,0.11738942982000002,-0.16104187659611471,0.039035167319598635,0.19168815841823522,0.45701998301674424,0.45710966213620169,-0.47887678890459223,-0.18633843357335478,-0.59102751010828269,0.7513482284608346,-0.094837494650857113,-0.75134822846083449,1.1143313032525008,0.42944011344035643,-0.45988913133220061,-0.010420844654616332,0.055253606058352604,-0.0084254182042922919,-0.032859578243888424
-0.46564990138424106,-0.42509010832881389,0.11635110153000001,-0.16586474529625875,0.041717996688643219,0.19088330960752184,0.45245917308936834,0.47846500537824693,-0.45671659604287201,-0.18252764919169917,-1.1810385775828089,0.3786748441395098,-0.12653276056982171,-0.75734968827901938,1.1020587890291491,0.41952769810610924,-0.41489579524680259,-0.010295679405422063,0.053786168676799653,-0.0098928555858447814,-0.032076944973726942
-0.46357248624107467,-0.4268895050885082,0.11559017930000001,-0.16942947433549568,0.04386426018387888,0.19048088520216513,0.44910563637806267,0.50251801464319379,-0.41512357731394273,-0.17970122473220457,-1.1864798979126074,0.76023299927500576,-0.12634361796527455,-0.76023299927500565,1.0794018396937299,0.41386346077225494,-0.32209703957068714,-0.0094821052856600314,0.053101364565408649,-0.0098928555858447814,-0.032076944973726942
-0.46096220252958675,-0.42888969290293238,0.11470351694000001,-0.17341358326170164,0.04614466514756678,0.18981017785990401,0.44521553379294804,0.54371023338437152,-0.39147136803674748,-0.17887709620786518,-0.59051928879140447,0.3712925195918273,-0.12643849008490865,-0.74258503918365437,1.0657132661369146,0.40064690699326022,-0.33615745709736256,-0.010671175153004584,0.054764460264501616,-0.012827730348950217,-0.033055236561428898
-0.45774182292103516,-0.43106750357346368,0.11370407735000002,-0.17844614190533023,0.04896163598506359,0.1886699753780601,0.44099007753670283,0.56790031456061107,-0.37131943644347648,-0.17598317807588235,-0.59306917345139365,0.3797878875981644,-0.12308277357998182,-0.76306707940275054,1.0487205541353495,0.37940601699130666,-0.4373924632895016,-0.010796340402198854,0.054862289423271635,-0.014099509412962454,-0.032370432450037671
-0.45481490716170403,-0.43285145486740956,0.11284334079000001,-0.18284963071850524,0.051376182417203715,0.18799926803579892,0.436965833483136,0.60885075190553173,-0.36965938508550145,-0.17519641313692899,-0.59041774939400804,0.75427226437540784,0.028024063421187795,-0.911020988441405,1.0369200596898205,0.37421379943527283,-0.4373924632895016,-0.010358262030019345,0.05447097278819113,-0.013121217825260717,-0.031979115814956931
-0.45198066419686367,-0.43439600144225443,0.11205260389,-0.18725311953168025,0.053522445912439376,0.18766391436466834,0.43300866016379513,0.63485275943116515,-0.3283721169471544,-0.17270464937968841,-1.1888076715149751,0.38289945599742875,-0.19835604158533371,-0.7657989119948575,1.0307838025781437,0.36807754232359591,-0.31647287256000911,-0.010733757777601865,0.05329702288294913,-0.01429516773050271,-0.032076944973726942
-0.44876800732118627,-0.435963716215722,0.11120871910000001,-0.19165660834485526,0.055802850876127262,0.18685906555395496,0.42938684051558507,0.65716135881912174,-0.30667530078225685,-0.16913744023904384,-1.1895627315292174,0.37830527801341918,-0.1260666952610715,-0.75661055602683824,1.0298397630225005,0.35061281054421045,-0.25741911894793568,-0.010608592528407594,0.05407965615311016,-0.014686484365583223,-0.032663919926347942
-0.44486030448682867,-0.43763954924942872,0.11025335337000002,-0.19689885693196837,0.058485680245171846,0.18592007527478938,0.42522845499356599,0.70218844804678859,-0.28526405701900787,-0.16943092876973798,-1.191626869532912,0.7510485112509403,-0.18758040528652858,-0.37552425562547015,1.0355040003563569,0.33078797987572051,-0.29678828802265567,-0.010796340402198854,0.056623214281135086,-0.016056092588365697,-0.033935698990360398
-0.44131557009755962,-0.43898330476954378,0.10944446841000001,-0.20151203568862791,0.060631943740407507,0.18511522646407597,0.42147249387690344,0.72237697367302567,-0.26268253588110024,-0.16534597433789167,-1.1887390772231561,0.37813161403085727,-0.19347327180609952,-0.75626322806171453,1.0180392685769715,0.31804344587454619,-0.31647287256000911,-0.011109253525184387,0.055742751852203121,-0.01674089669975716,-0.033837869831589928
-0.43814924961912755,-0.44007993283768371,0.10874836068000002,-0.2057058345583184,0.062644065767190935,0.18444451912181484,0.41825309863405002,0.74499795443996109,-0.26294045450822157,-0.16183035895806863,-1.1899062577887556,0.75857023572185445,-0.18920522357085406,-0.75857023572185422,1.0208713872438986,0.3114351689850488,-0.24054661791591467,-0.011297001398975645,0.05701453091621559,-0.01703438417606766,-0.03462050310175141
-0.4343728332436318,-0.44123834276881735,0.10795762378000001,-0.21052870325846246,0.064924470730878842,0.18357259957687533,0.41416178384625701,0.78618772093403444,-0.21838547803723177,-0.15762437190594061,-1.1859335106697284,0.37750341645942648,-0.26786940916646323,-0.67741519106919923,1.0232314861330054,0.30341083276209002,-0.23492245090523664,-0.010546009903810603,0.057699335027606602,-0.018159419501924647,-0.033397638617124407
-0.42982414358071352,-0.44244308909719637,0.10706188739000001,-0.21640002167602915,0.067875583036827877,0.18189583122122246,0.40980218612155961,0.82943510689595557,-0.21827239655156724,-0.15754275293423856,-1.1853194262329276,0.38029199201960701,-0.18885990019820442,-0.76058398403921401,1.0317278421337868,0.2821699427601343,-0.22086203337854812,-0.010295679405422063,0.055938410169743616,-0.017034384176067664,-0.033544382355279442
-0.42567703602725498,-0.44339298524072601,0.10629578000000001,-0.22143258031965773,0.070424270937420222,0.18068855800515243,0.40550965913108822,0.86320649020768825,-0.1942214602967299,-0.15213710708191125,-0.58595099395206252,0.74548330083327674,-0.56044787242332106,-0.94234874971777205,1.0222874465773621,0.26800934942549642,-0.17586869729316318,-0.010295679405422063,0.055253606058352597,-0.016838725858527179,-0.032957407402658442
-0.4216226012682871,-0.44420387219251956,0.10558152421000001,-0.22646513896328632,0.072570534432655889,0.17921300185217795,0.40202198095133035,0.86576734926124843,-0.17315346985224969,-0.14895539115985854,-1.1753786482972681,0.38435110164571296,-0.3843511016457129,-0.76870220329142591,0.99632635879719533,0.27036944831460313,-0.074633691101024149,-0.010233096780825074,0.055057947740812116,-0.017523529969918187,-0.032468261608807447
-0.41689628874926171,-0.44500703641143891,0.10479337989000001,-0.23170738755039938,0.074850939396343782,0.17787158716765561,0.39786359542931116,0.92045107750815769,-0.13149301107259395,-0.14714400381260473,-1.1901124687975575,0.38292170595128994,-0.37176991913681123,-0.76584341190257998,0.9864139434629482,0.2557368352021448,-0.0071436869729401917,-0.010796340402198854,0.054764460264501616,-0.01762135912868866,-0.032761749085117954
-0.41237849001784038,-0.44566346870574802,0.10408042039000001,-0.23673994619402799,0.07686306142312721,0.17653017248313335,0.39424177578110103,0.93448518389127566,-0.10866106789433438,-0.14226554412270151,-1.1801590735724647,0.37590984812982026,-0.38296309155129238,-0.75181969625964051,0.98688596324077082,0.24771249897918382,0.057534233649811299,-0.011297001398975645,0.055155776899582121,-0.017621359128688657,-0.033642211514049905
-0.40697257700588318,-0.44630445553430864,0.10328449833000002,-0.24282095455507921,0.079411749323719569,0.17492047486170664,0.3899492487906297,0.98358393501656716,-0.10928710389072969,-0.13941633678054963,-0.59347919995836029,0.38163546868105341,-0.38163546868105336,-0.76327093736210683,0.97744556768434632,0.24016018253404553,0.037849649112457841,-0.011609914521961176,0.055742751852203135,-0.018893138192700665,-0.033544382355279435
-0.40320388336326163,-0.44665970124652299,0.10275561201000001,-0.24722444336825422,0.081289729882050771,0.17384734311408875,0.38699813648468062,0.99808096154011061,-0.086789648829574836,-0.13475373813268515,-1.1782691991623973,0.37217325413508123,-0.37217325413508118,-0.74434650827016247,0.94865236123725227,0.23024776719980056,0.096903402724531296,-0.010796340402198854,0.056329726804824592,-0.020164917256713134,-0.032174774132496954
-0.39751995196783241,-0.44707672882173111,0.10200376381000001,-0.25372483161627446,0.083972559251095355,0.17210350402420976,0.38283975096266148,1.0256442257679099,-0.065466652708590006,-0.13186591113028473,-1.1850467039030497,0.76229968624162747,-0.38114984312081368,-0.76229968624162747,0.93449176790261446,0.22552756942158719,0.1447088223152618,-0.010984088275990114,0.055742751852203135,-0.019675771462862146,-0.032468261608807454
-0.39241522553797004,-0.44734702447232894,0.10136987800000001,-0.25917677014687213,0.086118822746331009,0.170493806402783,0.37921793131445136,1.0456620222464195,-0.043569250926934137,-0.12432548794142981,-1.1830052797791855,0.37974411558322763,-0.3797441155832274,-0.75948823116645514,0.92033117456797875,0.21750323319862624,0.12221215427256278,-0.011547331897363894,0.056525385122364609,-0.020751892209334124,-0.032957407402658428
-0.38645327575906868,-0.44751692459556186,0.1006828443,-0.26567715839489231,0.088533369178471141,0.16861582584445184,0.37519368726088448,1.0736735225752381,-0.021911704542351796,-0.12137276921855145,-1.1899062577887556,0.39038504962771031,-0.39038504962771031,-0.78077009925542051,0.88304161212010113,0.20900687719784483,0.1447088223152618,-0.010733757777601865,0.056916701757445579,-0.020164917256713134,-0.033740040672819917
-0.38222894087686787,-0.44757098372568144,0.10022136506000001,-0.27008064720806735,0.090143066799897906,0.16727441115992955,0.37251085789183991,1.0820857171884741,-0.010887311382835305,-0.11624460239589277,-1.1752445491930701,0.3750113611265507,-0.37501136112655087,-0.75002272225310151,0.84669608922786654,0.1986224420857772,0.17282965736863884,-0.010796340402198854,0.057503676710066565,-0.021241038003185105,-0.03403352814913041
-0.37639055482395417,-0.44757098372568144,0.099615997630000008,-0.27616165556911854,0.092289330295133559,0.16553057207005059,0.36902317971208198,1.1370444453721331,0.0072610618998834248,-0.11010993587896253,-1.1874372880319606,0.37865308496901401,-0.37865308496901395,-0.75730616993802791,0.84150387167183283,0.20287062008616791,0.10815173674588736,-0.011484749272766907,0.059166772409159546,-0.020556233891793636,-0.035403136371912884
-0.37042860504505282,-0.44747831093119078,0.099036556000000012,-0.28224266393016978,0.094838018195725918,0.16392087444862385,0.36526721859541961,1.1544525681605782,0.021782123927558079,-0.10603015107366368,-1.1828694348828455,0.76602146326251086,-0.38301073163125532,-0.76602146326251075,0.8315914563375878,0.20853485742002437,-0.0043316034675946304,-0.012486071266320488,0.060047234838091046,-0.021143208844414639,-0.036772744594695365
-0.36434309154016392,-0.44731613354083205,0.098477855010000004,-0.28874305217819002,0.097520847564770488,0.16231117682719709,0.36151125747875712,1.1756272025765562,0.04354174824357615,-0.10232106593595777,-1.1822585187280223,0.75267842806576235,-0.37633921403288106,-0.75267842806576224,0.79713401255663952,0.21797525297644671,-0.0015195199622621643,-0.011359584023572636,0.058971114091619065,-0.022219329590886613,-0.036381427959614403
-0.35981757007586834,-0.44712306521897643,0.098073412530000015,-0.29356592087833411,0.09939882812310169,0.16123804507957923,0.3586942866412603,1.170054236798165,0.065003013155453607,-0.10183602118910277,-1.1766541177311394,0.37486203070230101,-0.37486203070230117,-0.74972406140460213,0.76267656877568901,0.22505554964376673,0.035037565607125377,-0.010233096780825074,0.057894993345147083,-0.023784596131209583,-0.035990111324533891
-0.35316057433828685,-0.44672920584239101,0.097513415250000013,-0.30027599906983887,0.10234994042905073,0.15976248892660472,0.35493832552459792,1.1991872922152498,0.087213621252018175,-0.098814175215517261,-1.1840251119169263,0.76115502601394736,-0.38057751300697373,-0.76115502601394747,0.75087607433016001,0.2189192925320898,0.035037565607125377,-0.010733757777601865,0.058090651662687565,-0.02603466678292355,-0.033446553196509417
-0.34732991101824734,-0.44629673280143439,0.09704804714000001,-0.30614731748740553,0.10463034539273862,0.1584210742420824,0.35185307175019664,1.1942683707647819,0.099522364230398494,-0.096054935975209879,-1.3511304398842154,0.43140423160168573,-0.20988309831244215,-0.43140423160168562,0.73246730299513141,0.21750323319862624,0.023789231585769319,-0.011672497146558165,0.058384139138998072,-0.027208616688165543,-0.033837869831589928
-0.34172320695156033,-0.44583336882898095,0.096629345470000003,-0.3115992560180032,0.10691075035642651,0.15721380102601235,0.34890195944424762,1.2267720370130284,0.10953321759044897,-0.088250716595449835,-1.1896314209120291,0.38139250131472102,-0.19259436880636441,-0.57321584617688082,0.69423370099161286,0.22269545075466005,0.054722150144478829,-0.012360906017126217,0.057992822503917102,-0.028186908275867277,-0.033544382355279657
-0.33563769344667144,-0.44528505479491098,0.096191199450000014,-0.31768026437905444,0.10945943825701886,0.15553703267035951,0.34615205934097687,1.2165161553476653,0.10861751387032725,-0.087512935753550167,-1.1796860368388982,0.37601709772985731,-0.28376401455291356,-0.28376401455291356,0.65316798032116496,0.23874412320058197,0.10252756973520934,-0.012423488641723207,0.057797164186377065,-0.027893420799556552,-0.034424844784210928
-0.32859456106537865,-0.44454367243898546,0.095714164730000009,-0.32501941240101279,0.11214226762606344,0.15359198137780219,0.34286559336389733,1.2723485973102917,0.13162226868727153,-0.081008755493234649,-1.1912823492167524,0.38174601075864617,-0.38174601075864611,-0.76349202151729223,0.64750374298731073,0.25526481542432433,0.20376257592733527,-0.011797662395752436,0.056525385122364616,-0.029654345657419999,-0.034913990578061917
-0.32236231563587947,-0.44379456735018569,0.095320092570000015,-0.3317294905925175,0.11428853112129911,0.15204935449060153,0.33984741032372212,1.2835976542224146,0.15229124711113393,-0.076687990093474032,-1.1814449447961073,0.37627474662911831,-0.18704606417690853,-0.56550342908132789,0.63145507054138883,0.2651772307585693,0.26000424603407624,-0.011922827644946416,0.05789499334514709,-0.031023953880202248,-0.034718332260521657
-0.31510294673410844,-0.44284467120665605,0.094896205740000003,-0.33927832855796042,0.11683721902189145,0.14997016172959199,0.33615851994128587,1.2701452690997566,0.17519245091031124,-0.073516793177095363,-1.1892194035646799,0.38117189019642239,-0.38117189019642228,-0.76234378039284456,0.5752847169806643,0.26281713186946482,0.36686341923689331,-0.011672497146558165,0.058873284932849053,-0.03268704957929499,-0.033740040672819917
-0.3097974292495162,-0.44210328885073052,0.094612318230000006,-0.34473026708855803,0.11858105811177043,0.14849460557661748,0.3334756905722413,1.2907032576594664,0.19688693760907114,-0.066096438271248989,-1.1879850621240062,0.38272154940851144,-0.38272154940851133,-0.76544309881702277,0.53044283808764847,0.27556166587063696,0.44278967388098778,-0.011046670900587396,0.058579797456538553,-0.033371853690686452,-0.034229186466670898
-0.30294736519007909,-0.44109161084420712,0.094273986540000007,-0.35165003522354737,0.1207273216070061,0.14648248354983404,0.33025629532938772,1.3115208081802687,0.19672812122704031,-0.062374060051279108,-1.1870267888542589,0.38137042871206372,-0.38137042871206367,-0.38137042871206367,0.51675426453083317,0.29585851631694954,0.4568500914076763,-0.011735079771155156,0.058775455774078583,-0.03591541181871092,-0.033935698990360398
-0.29603551926764815,-0.43997181457744455,0.093966765810000005,-0.35856980335853661,0.12287358510224176,0.1443362200545984,0.3269027586180821,1.3125795840604741,0.21876326401007903,-0.055080365226040824,-1.1879850621240062,0.37991926420961364,-0.37991926420961353,-0.75983852841922717,0.48229682074988273,0.31096314920722834,0.47372259243969728,-0.011359584023572636,0.060340722314401539,-0.036306728453791438,-0.034718332260521435
-0.28951753272180264,-0.43883657284493355,0.093708804100000015,-0.3650701916065569,0.12501984859747742,0.1419887443566844,0.3237504341094547,1.308129138944701,0.21802152315745019,-0.047574461309694838,-1.1839570684072476,0.37733048772994443,-0.37737369021308265,-0.75461777297675048,0.43367878363429652,0.31332324809633505,0.50465551099840678,-0.011422166648169916,0.059166772409159553,-0.038116567891039656,-0.035452050951297671
-0.28350152381278176,-0.43772449931104523,0.093494916250000004,-0.37115119996760809,0.12689782915580863,0.13990955159567486,0.3205981096008273,1.312655276326437,0.24065346732651344,-0.044066833227610867,-1.1880535694224392,0.38108371719383238,-0.76216743438766477,-0.76216743438766477,0.38175660807396278,0.31898748543018929,0.47653467594502974,-0.011484749272766907,0.058579797456538553,-0.03767633667657392,-0.034816161419291898
-0.27696809180118781,-0.43645797111967238,0.093287509850000006,-0.37765158821562839,0.12890995118259208,0.13762914663198692,0.31724457288952157,1.3265008826792974,0.2609509933139601,-0.040151479350567468,-1.1809031839593327,0.37526763312732053,-0.75053526625464095,-0.75053526625464095,0.35768359940507993,0.33125999965354097,0.46809842542901925,-0.012611236515514468,0.058677626615308565,-0.037480678359033431,-0.03491399057806191
-0.26939981358444781,-0.43489025634620482,0.093078807160000013,-0.38520042618107125,0.13105621467782771,0.13481217579449015,0.313354470304407,1.3371545848051667,0.28496737053224863,-0.036794502946784546,-1.1903875280149372,0.37998498660568275,-0.75996997321136528,-0.75996997321136528,0.31850595784591823,0.34730867209946287,0.43716550687030975,-0.012360906017126217,0.059558089044240058,-0.038556799105505413,-0.033544382355279428
-0.26274281784686626,-0.4334383825658506,0.092925844940000016,-0.39232988425954507,0.1328000537677067,0.13226348789389777,0.30986679212464896,1.3465487549616042,0.28234086797582025,-0.029164298717655145,-1.179415900352331,0.37653274885525118,-0.37653274885525101,-0.75306549771050224,0.28121639539804283,0.34542059298817884,0.38092383676356872,-0.012548653890917479,0.057699335027606602,-0.038948115740586368,-0.034327015625440917
-0.25655690881461246,-0.43202512244986752,0.092803993680000016,-0.39924965239453442,0.13414146845222902,0.12971479999330543,0.3067815383502478,1.3390114215832334,0.32926510366800821,-0.025791918286755776,-1.7880608355627945,0.37741460700824264,-0.38347879642200589,-0.38347879642200589,0.23495845717156333,0.36052522587845764,0.34999091820487233,-0.010921505651393125,0.05701453091621559,-0.038752457423045894,-0.03491399057806191
-0.2499308040085278,-0.43046513040927414,0.09269251274000001,-0.40637911047300823,0.1356170246052035,0.12676368768735638,0.30315971870203751,1.3268050911147244,0.32626354699542398,-0.018254857886136913,-1.1811740022563078,0.37396853968082111,-0.747937079361642,-0.747937079361642,0.20663727050228978,0.37515783899091598,0.3443667511941943,-0.011547331897363894,0.058579797456538546,-0.037969824152884413,-0.03491399057806191
-0.24276410790124747,-0.42867345638245408,0.092595290990000009,-0.41413763838193557,0.13709258075817804,0.12367843391295513,0.29926961611692288,1.3439329020494402,0.34682139407727486,-0.018192276954062395,-1.1771247255944759,0.37839216983725227,-0.37839216983725221,-0.75678433967450454,0.17265184649916193,0.38790237299208807,0.33874258418351627,-0.011484749272766907,0.058481968297768076,-0.039535090693207375,-0.034816161419291891
-0.23613800309516284,-0.42692039602000514,0.092522698750000007,-0.42126709646040938,0.13843399544270032,0.12059318013855388,0.29537951353180825,1.3291674458229292,0.37042371440966881,-0.014629888289012695,-1.7749155947982178,0.39381622325982296,-0.75691472980883867,-0.75691472980883867,0.12592188849485977,0.37987803676912713,0.33874258418351627,-0.010984088275990114,0.057797164186377058,-0.038556799105505413,-0.03374004067281991
-0.23002932139165125,-0.42525228571917262,0.092477328600000006,-0.42755779476494515,0.13964126865877038,0.11777620930105703,0.29162355241514581,1.3101620321616634,0.37121257577913797,-0.0073305221883273857,-1.7786954887206037,0.37670093967666252,-0.37932878411902771,-0.75865756823805552,0.068335475600671741,0.37846197743566357,0.36123925222621528,-0.010045348907033812,0.057405847551296102,-0.038654628264275882,-0.032761749085117954
-0.22343410751706352,-0.42339882982935872,0.092447513930000003,-0.43426787295644997,0.14084854187484044,0.11455681405820355,0.28773344983003118,1.3266529694578664,0.39147136803674748,-0.0036505529838339839,-1.7715578663742133,0.38374400636898148,-0.75229175611801469,-0.75229175611801469,0.049926704265643156,0.38743035321426761,0.39217217078492478,-0.012798984389305728,0.057210189233756079,-0.039730749010747406,-0.031587799179875968
-0.21594305662906574,-0.42118240549445629,0.092442328770000012,-0.44223609080886184,0.14218995655936273,0.11093499440999338,0.28344092283955985,1.3474744300910459,0.39120225389740049,-0.0012829685288469391,-1.7703400218281264,0.37873688688210672,-0.75909453262478377,-0.75909453262478377,0.020189458262906024,0.39356661032594237,0.45122592439699827,-0.01354997588447077,0.05760150586883659,-0.04139384470984038,-0.031881286656186461
-0.20940962461747181,-0.41912043581703834,0.092452699090000007,-0.4497849287743047,0.14339722977543279,0.10778266990136599,0.2797520324571236,1.2985769380327883,0.41121603037704957,0.0036328510610987514,-1.1753115949201052,0.18796564657755002,-0.74556764583535085,-0.74556764583535085,-0.0071876888507244278,0.38601429388080405,0.53840051306244874,-0.01323706276148553,0.058873284932849046,-0.041198186392300128,-0.032957407402658657
-0.20345539757144471,-0.41717430713273379,0.092481217470000016,-0.45691438685277858,0.14447036152305062,0.10463034539273862,0.2765997079484962,1.3038687944637062,0.44238405526447167,0.0078164043512949557,-1.2643940682063652,0.37759101043902182,-0.78682980748844744,-0.39341490374422361,-0.032204737075248201,0.37846197743566357,0.67619260482396226,-0.012548653890917479,0.057992822503917095,-0.041687332186150873,-0.033055236561428898
-0.19701463835434146,-0.41501194192795093,0.092531772780000007,-0.46446322481822144,0.14567763473912068,0.10127680868143291,0.27297788830028608,1.303634107254839,0.45627193753919359,0.014587995246549454,-1.7698330806386673,0.38167660864976505,-0.75453136059034187,-0.75453136059034187,-0.060997943522344417,0.37421379943527283,0.81117261308014321,-0.012173158143334958,0.058384139138998072,-0.040513382280909109,-0.033153065720198695
-0.1901568515620301,-0.41261017200406708,0.09261343905000001,-0.47264113261411789,0.14701904942364297,0.097789130501674912,0.26908778571517139,1.3026642524194085,0.45593248834679295,0.018221427907176378,-1.1790109275125626,0.37221529810866183,-0.37221529810866172,-0.74443059621732366,-0.084126912635584167,0.37751793788002047,0.96864928937901018,-0.011672497146558165,0.058873284932849046,-0.039143774058126406,-0.033740040672819917
-0.18290520539313329,-0.40996127462820808,0.092737882890000012,-0.48123842029698338,0.14822632263971303,0.093899027916560296,0.2646611172562478,1.2709522695017725,0.48208534360412053,0.022069050857736961,-1.1899749868511822,0.18844258492502328,-0.76459936621404534,-0.76459936621404534,-0.14832160241926959,0.35438896876678072,1.0586359615497931,-0.011484749272766907,0.058481968297768076,-0.040611211439679357,-0.031979115814956924
-0.17800899275087495,-0.40812326420414269,0.092844178670000013,-0.48690004877106557,0.14903117145042641,0.091216198547515726,0.26171000495029878,1.2651064590285854,0.47986796721773928,0.029290057494394298,-1.1845016355634173,0.37504930417838117,-0.75756735502853934,-0.75756735502853934,-0.19552358020139221,0.33503615787611118,1.0951930471191806,-0.011484749272766907,0.060047234838091039,-0.040317723963368399,-0.031000824227254965
-0.17089635577371418,-0.40536624856804454,0.093030844430000009,-0.49528764651044649,0.15010430319804424,0.087326095962401096,0.25741747795982745,1.2531651245617701,0.50566312043720552,0.036903248869958279,-1.1939057109037159,0.19072384700054268,-0.76807502042260611,-0.76807502042260611,-0.22620486575977244,0.32653980187532977,1.1711193017632751,-0.012298323392528936,0.060438551473171558,-0.04139384470984038,-0.033153065720198924
-0.16479539680307681,-0.40289497404829266,0.093221399060000015,-0.50262679453240489,0.15104329347720985,0.083838417782643115,0.25379565831161727,1.2400858693335193,0.52214141866674491,0.040169899572772109,-1.1814449447961073,0.19058927964340008,-0.74836177817452154,-0.74836177817452154,-0.2384773799831241,0.32229162387493687,1.2470455564073826,-0.012611236515514468,0.060732038949482051,-0.041785161344921343,-0.033153065720198924
-0.15777543262040672,-0.3999448900903389,0.093474175610000015,-0.51143377215875485,0.15238470816173216,0.079680032260624076,0.24950313132114593,1.2489671589140523,0.52588090901644313,0.047813515146702096,-1.7848593866831337,0.1905914573453579,-0.74887205383439392,-0.74887205383439392,-0.2705747248749657,0.30671497120683766,1.2920388924927677,-0.01354997588447077,0.060732038949482058,-0.042127563400616852,-0.034375930204825919
-0.15300278370413598,-0.39790608861154364,0.093666026530000016,-0.51772447046329062,0.15332369844089774,0.076863061423127224,0.24655201901519691,1.2420089247853601,0.52295112622541473,0.051204609011544437,-1.7749155947982178,0.37303705846112362,-0.74607411692224712,-0.74607411692224712,-0.33052123665826261,0.27461762631499381,1.261105973934058,-0.012611236515514468,0.059558089044240051,-0.041882990503691354,-0.033740040672819917
-0.14612955144607617,-0.39489422279059611,0.093975839840000006,-0.52674113803312517,0.15426268872006335,0.072704675901108129,0.24212535055627338,1.2004981810336197,0.54568099137891812,0.058620559231344571,-1.1853194262329276,0.19308687743813993,-0.76256432768798832,-0.76256432768798832,-0.38621957044116667,0.2661212703142124,1.2976630595034457,-0.012986732263096988,0.058384139138998072,-0.042567794615082824,-0.033055236561428905
-0.14036839272190468,-0.39221443448324017,0.094271393960000005,-0.53470935588553703,0.15506753753077673,0.068948714784445739,0.23836938943961095,1.1535253502181624,0.56588036048438151,0.062105684484539042,-1.1819193934573184,0.12666919745059882,-0.73825897800983076,-0.73825897800983076,-0.40085218355362501,0.2448803803122567,1.2357972223860265,-0.01323706276148553,0.058873284932849053,-0.042567794615082824,-0.033348724037739405
-0.13388129710755611,-0.38903266853905966,0.094644725480000011,-0.54393571339885616,0.15573824487303786,0.064387904857069939,0.23367443804378293,1.1358660252882609,0.56793301264413032,0.06966401881333488,-1.7793099620584851,0.094964477800787636,-0.75979472359226896,-1.1396920853884036,-0.40132420333144542,0.20239860030834744,1.187991802795296,-0.011735079771155156,0.059264601567929558,-0.041882990503691354,-0.032761749085117954
-0.12952567576649349,-0.38685485786852836,0.094911761220000015,-0.55001672175990735,0.15614066927839454,0.061235580348442537,0.23052211353515553,1.1280073833384705,0.56400369166923525,0.069182038924466824,-1.7669995666437062,0.094739116251849137,-0.56091127992020184,-0.94135696075362651,-0.41737287577736737,0.17407741363907389,1.1261259656778901,-0.011234418774378654,0.059460259885470046,-0.041785161344921121,-0.032859578243888188
-0.12327798487124585,-0.38367309192434784,0.095317499990000012,-0.55861400944277284,0.1566772351522035,0.056473558218388439,0.22589423287355365,1.11325327242579,0.56754088398177538,0.073279915132336018,-1.7780814396450964,0.077424865469070195,-0.7573496882790195,-0.7573496882790195,-0.47779140733848252,0.14481218741415722,1.0586359615497931,-0.011735079771155156,0.059558089044240058,-0.04110035723352988,-0.032761749085117947
-0.11782573546204335,-0.38080023529513635,0.095697312960000003,-0.56637253735170034,0.1568113766206557,0.052382243430595415,0.22166877661730841,1.1034756401711094,0.58419298597294023,0.079899932559598499,-1.7624646641400579,0.053900764235950742,-1.1261329695107087,-0.74392198188146719,-0.51413693023071705,0.12357129741220368,1.1036292976351911,-0.011297001398975645,0.059655918203010069,-0.041882990503691125,-0.032272603291267188
-0.11204913127212342,-0.37765708301532697,0.096130273820000015,-0.57496982503456584,0.1568113766206557,0.048022645705897996,0.21704089595570658,1.0695347431026794,0.58933547068923153,0.084267053895057828,-1.7779791393493916,0.053613127971020774,-0.7625643276879881,-0.7625643276879881,-0.55945082890155562,0.094778090965109668,1.0811326295924921,-0.012110575518737676,0.059166772409159546,-0.043252598726473829,-0.032859578243888424
-0.10725331415723,-0.37496957197509684,0.096519160820000005,-0.58230897305652407,0.1568113766206557,0.043998401652331126,0.21301665190213967,1.0535264169754925,0.59260860954871475,0.092103335623372889,-1.7878539439416707,0.053368506439596855,-0.76366898107726833,-1.1455034716159025,-0.59296423312686075,0.06079266696197963,1.0698842955711492,-0.011735079771155156,0.059362430726699576,-0.045796156854498303,-0.033250894878968935
-0.10221809232323562,-0.37205810168151421,0.096953417970000011,-0.59006750096545157,0.1568113766206557,0.03943759172495534,0.20872412491166834,0.99991093866549219,0.58690424660800633,0.091216762519337649,-1.1804295506419824,0.053103379163924783,-1.1381829070843024,-1.1381829070843024,-0.62458955824088414,0.034359559403992289,1.0164547089697407,-0.012298323392528936,0.059362430726699569,-0.043448257044014324,-0.033446553196509424
-0.096565051859303266,-0.36868326741547808,0.097469341390000006,-0.59908416853528612,0.1568113766206557,0.034206074455318411,0.20362674911048362,1.0090457133581288,0.59226596218846683,0.092050081309627066,-1.1912134690577922,0.052799549634938006,-0.76428898604914741,-1.146433479073721,-0.65951902179965516,-0.0048180821551693648,1.0586359615497931,-0.012736401764708739,0.059362430726699576,-0.042176477980001861,-0.033055236561428905
-0.091707452881416046,-0.36569456979315323,0.097939894660000013,-0.60726207633118257,0.1568113766206557,0.029376981591038159,0.19893179771465561,0.97705410405096771,0.60794477585393547,0.094756847850970077,-1.7686176055074556,0.052533171982160939,-1.1427885376696485,-1.1427885376696485,-0.71191321713780931,-0.042107644603044794,1.0670722120658036,-0.012298323392528936,0.058873284932849053,-0.043741744520324817,-0.031881286656186454
-0.086656785581673224,-0.36249735838322428,0.098459706950000003,-0.61585936401404806,0.1568113766206557,0.024346676524079583,0.19390149264769702,0.95212680285399709,0.60589887454345259,0.10170242385352497,-1.7626657210262253,0.052249549912038985,-0.73970477424793435,-1.1259029596617391,-0.75203489825261405,-0.071844890605781933,1.1542468007312541,-0.012047992894140687,0.058286309980227595,-0.044768950687411324,-0.032908492823273433
-0.082718191815818728,-0.3599256883361075,0.098897852970000005,-0.62298882209252193,0.1568113766206557,0.020255361736286573,0.18994431932835626,0.91290985463181629,0.60860656975454419,0.10580538221897562,-1.7705428796282672,0.05202230377936444,-0.75865756823805541,-0.75865756823805541,-0.787908401367026,-0.10535829483108931,1.2076763873326626,-0.012110575518737676,0.057797164186377079,-0.045698327695728291,-0.032174774132496961
-0.07762118811883055,-0.35645818127558071,0.099517479590000013,-0.63242486954932553,0.15694551808910792,0.014621420061292981,0.18457866059026712,0.88012818106084922,0.61608972674259443,0.11079963968797125,-1.7923126911629612,0.0032052875347881298,-0.76673449737806143,-0.76673449737806143,-0.80678919247987502,-0.13415150127818332,1.2133005543433275,-0.012486071266320488,0.055938410169743623,-0.046872277600970291,-0.031881286656186461
-0.073304180442139044,-0.35341542452313623,0.10007877316000001,-0.64060277734522197,0.1568113766206557,0.0096581857285605033,0.17988370919443911,0.85062612656116365,0.61070593701827136,0.11715349430838221,-1.7766503059119108,-0.021029048716202068,-0.75905081353634152,-0.75905081353634152,-0.83983057692736196,-0.1775773208377357,1.1964280533113065,-0.011547331897363894,0.054862289423271628,-0.04520918190187731,-0.032859578243888424
-0.068647372518981661,-0.35000969932560322,0.10073599219000001,-0.64961944491505652,0.1566772351522035,0.0038901025851146576,0.17451805045634994,0.81963285884107928,0.59811046455970651,0.11898679668340537,-1.2029684075297513,-0.03491701056213023,-1.1546696403917556,-0.76977976026117045,-0.88184033715345067,-0.22053112061946759,1.1120655481512016,-0.011609914521961176,0.051438268866315674,-0.044720036108026336,-0.031881286656186468
-0.065488774773423838,-0.34765426579896475,0.10120006401000001,-0.65591014321959218,0.15627481074684682,-0.00013414146845221186,0.17062794787123531,0.80257474788520999,0.60735386326448326,0.12379235977701544,-1.7668985375089639,-0.075537032459659204,-1.1277938794653004,-1.1277938794653004,-0.90544132604451089,-0.24885230728874114,1.0839447130978246,-0.011297001398975645,0.051927414660166656,-0.043643915361554354,-0.032566090767577931
-0.061326221754216828,-0.3444261634575389,0.10185728304000001,-0.66450743090245767,0.15587238634149012,-0.0056339416749936061,0.16526228913314611,0.76080180115852669,0.60864144092682138,0.12770346752707273,-1.1804295506419824,-0.094732872148807948,-1.2242444211758265,-1.2242444211758265,-0.95217128404881302,-0.28236571151404855,1.0980051306245131,-0.012235740767931946,0.051144781390005167,-0.045893986013268329,-0.031000824227254965
-0.057379905255488105,-0.34124439751335839,0.10253783529,-0.67331440852880775,0.15506753753077673,-0.010999600413082775,0.16003077186350922,0.72183552414248187,0.61246650533301505,0.13217763289898524,-1.7817721068399317,-0.12639927183250374,-1.1488318754734568,-1.1488318754734568,-0.98898882671886801,-0.32248739262885112,1.0811326295924921,-0.012986732263096988,0.048992539897061212,-0.04579615685449831,-0.031783457497416442
-0.05439120763316322,-0.33873450932923543,0.10308875854000001,-0.68023417666379704,0.1545309716569678,-0.015359198137780222,0.15607359854416844,0.71703982421118029,0.58666894708187478,0.13494668449312716,-1.7699344456490131,-0.13112525395912347,-0.75328070847230799,-0.75328070847230799,-1.0111737562764647,-0.35836089574326518,0.94052845432564625,-0.012047992894140687,0.0494816856909122,-0.045698327695728069,-0.033055236561428683
-0.051024096100001338,-0.33577670263840748,0.10375116273000001,-0.68841208445969349,0.1539944057831589,-0.020657786141643264,0.15104329347720985,0.654290173807897,0.61067082888737068,0.13545094057200344,-1.7765481702231549,-0.095711690886337381,-1.1320562854691203,-1.1320562854691203,-1.0451591802795925,-0.39895459663589039,0.81117261308014321,-0.011985410269543697,0.048014248309359693,-0.045600498536957815,-0.033935698990360391
-0.047348075251870472,-0.33241731383811979,0.10452764044000001,-0.69784813191649708,0.15345783990934997,-0.02682829369044578,0.14514106886531181,0.6312466762833262,0.587712422746545,0.13884040148602902,-1.7730825303248479,-0.094342576180098836,-1.1412711530508743,-1.1412711530508743,-1.0682881493928322,-0.43577213930594533,0.84210553163883961,-0.012047992894140687,0.046351152610266726,-0.046187473489578829,-0.032272603291267424
-0.044343932163797131,-0.32955217994178249,0.10520948898000002,-0.706235729655878,0.15292127403554107,-0.032462235365439407,0.13977541012722264,0.58392656573079094,0.58392656573079094,0.14157619449036599,-1.7616608950536869,-0.094555963291038297,-1.4978292164372655,-1.1233719123279491,-1.099441454729033,-0.47258968197600032,0.81117261308014321,-0.011672497146558165,0.044198911117322763,-0.045991815172038791,-0.031098653386025427
-0.04106949342512594,-0.32625457300448862,0.10601448507000001,-0.7156717771126816,0.15211642522482768,-0.038833955116920296,0.13353783184419399,0.56881728640812268,0.56881728640812268,0.14321720798973531,-1.7820803541336585,-0.19004442022156748,-1.1392323467496832,-1.1392323467496832,-1.1395631358438376,-0.51271136309080512,0.71274969039333669,-0.010984088275990114,0.041948840465608803,-0.045600498536957822,-0.031783457497416449
-0.038984355549085324,-0.32405359413533463,0.10656929719000001,-0.72217216536070195,0.1513115764141143,-0.043193552841617751,0.12931237558794875,0.52199174790521685,0.56549106023065143,0.14603049074127158,-1.7716594290564569,-0.19106508555688204,-1.1290821242302389,-1.1290821242302389,-1.1584439269566869,-0.53395225309276084,0.71274969039333669,-0.012110575518737676,0.042046669624379286,-0.046578790124659791,-0.031294311703565461
-0.036134667118496479,-0.32086410545827992,0.10739762650000001,-0.73139852287402096,0.14997016172959202,-0.04990062626422917,0.12314186803914626,0.47887678890459223,0.54417816920976392,0.14980148581387343,-1.7730825303248479,-0.19043028743735352,-1.1356329798453153,-1.1356329798453153,-1.1763806785138926,-0.57360191442974295,0.7352463584360357,-0.012298323392528936,0.040579232242826321,-0.047557081712361289,-0.031979115814956931
-0.033810124523354905,-0.31814570348655291,0.10812873406000001,-0.73957643066991741,0.14862874704506973,-0.056004063078805608,0.11757499709837872,0.45491716447049962,0.54156805294107102,0.14908297243476276,-1.7645780517919132,-0.37518217021838707,-1.1255465106551612,-1.1255465106551612,-1.2127262014061273,-0.60145108132119385,0.66775635430795177,-0.012235740767931946,0.038720478226193324,-0.047605996291746749,-0.032321517870652433
-0.031392909133722634,-0.31507977853548574,0.10897391514000002,-0.749012478126721,0.14715319089209522,-0.063180631640999851,0.11080085294154116,0.39264182060907449,0.54533586195704786,0.15012017572734593,-1.7768546125248266,-0.3817902455223493,-1.5271609820893972,-1.145370736567048,-1.2471836451870755,-0.63354842621303764,0.63401135224390981,-0.012486071266320488,0.037644357479721349,-0.046578790124659784,-0.032174774132496954
-0.029755689764387035,-0.31283246326908642,0.10961039353000002,-0.75614193620519476,0.14594591767602516,-0.068546290379089006,0.10570347714035648,0.37087103459383225,0.52358263707364561,0.15379932964347326,-1.7770589661317868,-0.37976600032940006,-1.5190640013176,-1.5190640013176,-1.2589841396326067,-0.65526133599281378,0.73243427493070323,-0.012047992894140687,0.035981261780628368,-0.046089644330808796,-0.033153065720198924
-0.028010352134812296,-0.3102453477562212,0.11037390834000001,-0.76473922388806026,0.14447036152305062,-0.074850939396343769,0.099667111060006169,0.32464423450819707,0.5194307752131152,0.15984544668834505,-1.7629673923801574,-0.18854648462706008,-1.4881887167379739,-1.4881887167379739,-1.2679525154112108,-0.68688666110683494,0.8196088635961537,-0.012736401764708739,0.035394286828007375,-0.04775274002990177,-0.033935698990360398
-0.026349964566854026,-0.30758100491461376,0.11119705249000002,-0.77354620151441034,0.14272652243317166,-0.081625083553181349,0.09316124984007304,0.28248641284160764,0.49978365348899817,0.15683891338278255,-1.770035822271137,-0.18954437202196828,-1.1216953552714692,-1.5015927170676038,-1.2939136031913776,-0.71284774888700408,0.90397136875625872,-0.012611236515514468,0.033242045335063405,-0.047997312926827039,-0.033397638617124185
-0.024890368053625593,-0.30496299847025166,0.11203834470000001,-0.78256286908424488,0.14071440040638825,-0.088801652115375593,0.0865212471516877,0.2597746664396775,0.49790144400938185,0.15988193067047077,-1.7633697815139386,-0.37449986574879229,-1.1234995972463768,-1.1234995972463768,-1.3217627700828285,-0.7317285399998531,0.84772969864951764,-0.012298323392528936,0.031089803842119918,-0.047654910871131766,-0.033544382355279435
-0.023832353649856836,-0.30278518779972036,0.11276297081000002,-0.79011170704968769,0.138836419848057,-0.095106301132630355,0.08061902253978967,0.19808341075383318,0.47044810054035385,0.1620891269906018,-2.0169074155483471,-0.43123484311993648,-1.7249393724797462,-1.2937045293598097,-1.3411155809735003,-0.7524974102239862,0.82523303060681863,-0.012548653890917479,0.030600658048268933,-0.046774448442199822,-0.033740040672819917
-0.022867012040578772,-0.3004992588689499,0.11355889287000001,-0.79807992490209967,0.13655601488436911,-0.1016792330867896,0.074180232054082654,0.17351975413471113,0.45548935460361673,0.16383346185180953,-1.7667975199263497,-0.37356573909953228,-1.1206972172985967,-1.4942629563981291,-1.3557481940859564,-0.78695485400493448,0.79711219555345469,-0.012486071266320488,0.030111512254417942,-0.048535373300063259,-0.034229186466670891
-0.021978897760042953,-0.29796620248620426,0.11448185135000001,-0.80730628241541869,0.13387318551532454,-0.10959357972547105,0.066400026883853394,0.13149301107259395,0.43831003690864656,0.16553700428918031,-1.7851687031963361,-0.37360809829435027,-1.4944323931774008,-1.4944323931774008,-1.3788771631991983,-0.80489160556214256,0.8899109512295702,-0.013299645386082521,0.029818024778107452,-0.049709323205305245,-0.033837869831589928
-0.021530979253337933,-0.29626720125387485,0.11512870006000001,-0.81380667066343892,0.13199520495699332,-0.11516045066623859,0.061101438879990311,0.086948777275260195,0.43474388637630096,0.1678388430355813,-1.7706443259629738,-0.7555695279155823,-1.3222466738522689,-1.3222466738522689,-1.4015341125346155,-0.81952421867459868,0.7577430264787347,-0.01323706276148553,0.027567954126393481,-0.050981102269317714,-0.032370432450037435
-0.021090783479507137,-0.29388859952861374,0.11606721402000002,-0.82303302817675816,0.12931237558794875,-0.12367843391295513,0.053254162975534924,0.065856831231271673,0.39514098738763004,0.16581478308355516,-1.1921095328870801,-0.38261044171838537,-1.5304417668735413,-1.1478313251551562,-1.3887895785334434,-0.8450132866769452,0.61713885121188883,-0.012611236515514468,0.026394004221151502,-0.048046227506212284,-0.033348724037739412
-0.02092860608914842,-0.29205058910454829,0.11682554367000002,-0.83058186614220098,0.12703197062426086,-0.13058671953824491,0.046748301755601823,0.043807927935772172,0.39350158718641365,0.16512683423130115,-1.7807453855613564,-0.37312154678193471,-1.6888068579766857,-1.296165516278792,-1.4057822905350061,-0.85917388001158301,0.55246093058913726,-0.012298323392528936,0.02561137095099,-0.048926689935143999,-0.03413135730790065
-0.02094405155489687,-0.28987277843401699,0.11777053908000001,-0.84001791359900457,0.12408085831831182,-0.13890349058228313,0.038565672180015845,-0.02188894832946452,0.37211212160089679,0.1653364344132241,-1.7830057362700078,-0.38187874581106573,-1.3365756103387301,-1.3365756103387301,-1.4232470223143916,-0.87333447334621872,0.51871592852508219,-0.012673819140111748,0.023361300299276043,-0.048633202458833277,-0.03403352814913041
-0.021175733541123606,-0.28807338167432267,0.11859886839000001,-0.84819582139490102,0.12139802894926725,-0.14641541281560794,0.031456174352047714,-0.065014152709861592,0.34674214778592849,0.16733070532960131,-1.7652836410962969,-0.7484467758209723,-1.8741622155780191,-1.4938482756163554,-1.439767714538134,-0.89315930401471089,0.49621926048239628,-0.012736401764708739,0.022383008711574524,-0.049171262832069254,-0.033886784410974938
-0.021569592917709057,-0.28646705323648397,0.11936756836000001,-0.85574465936034383,0.11898348251712712,-0.15345783990934997,0.024816171663662359,-0.10911108784764999,0.34915548111247996,0.16849533088869714,-1.1850467039030497,-0.41572769148418076,-1.6629107659367228,-1.2471830744525423,-1.446848011205454,-0.89835152157074472,0.5412125965677812,-0.013362228010679508,0.02062208385371108,-0.049904981522845733,-0.034229186466670898
-0.022187411547647015,-0.28471399287403498,0.12025552701000002,-0.86476132693017849,0.11616651167963032,-0.16150632801648368,0.01676768355652869,-0.1313033868641944,0.32825846716048601,0.16897158095869866,-1.7825943367000334,-0.37917599618595715,-1.5167039847438282,-1.5167039847438282,-1.4869696923202567,-0.90495979846023988,0.54964884708379169,-0.012548653890917479,0.018861158995848094,-0.049904981522845726,-0.033837869831589928
-0.022990575766566365,-0.28319261449781274,0.12109163406000001,-0.87272954478259024,0.11321539937368127,-0.16901825024980857,0.009389902791656024,-0.1730547393984623,0.30284579394730909,0.17065637893431407,-1.1747084586243881,-0.37467020910369286,-1.4986808364147715,-1.4986808364147715,-1.4794173758751183,-0.91959241157269822,0.5721455151264907,-0.013111897512291259,0.018176354884457083,-0.051665906380708726,-0.031979115814956924
-0.024172153896322716,-0.28156311786135141,0.12204311092000002,-0.88216559223939406,0.10972772119392332,-0.17800572863610789,0.00093899027916560796,-0.21939582029046906,0.28521456637760967,0.16940153409090911,-1.7871302001521958,-0.76464372681779402,-1.529287453635588,-1.529287453635588,-1.4751691978747277,-0.92100847090616178,0.63963551925457474,-0.01323706276148553,0.016904575820444613,-0.051176760586857738,-0.034424844784210921
-0.02512205003985233,-0.28049738072470842,0.12270032995000001,-0.88845629054392972,0.10717903329333096,-0.18431037765336261,-0.0049632343327324496,-0.23939718775292962,0.26116056845774144,0.16804103530862782,-1.181851591748194,-0.75199128582856889,-1.5039825716571378,-1.5039825716571378,-1.4784733363194751,-0.93611310379644053,0.54683676357845923,-0.013299645386082521,0.016904575820444627,-0.050785443951777233,-0.034620503101751417
-0.026627982950326111,-0.27913817973884492,0.12360514037000002,-0.89726326817027979,0.1035572136451208,-0.19289543163430528,-0.01328000537677064,-0.30395499223119532,0.23882177961022488,0.16763713674602271,-1.7685163912688442,-0.74925521747762924,-1.4985104349552585,-1.4985104349552585,-1.4770572769860115,-0.94838561801979226,0.45122592439699827,-0.01286156701390301,0.015730625915202627,-0.050296298157926245,-0.035305307213142872
-0.028311538716907052,-0.27795660160908853,0.12447883983000001,-0.90523148602269166,0.099801252528458367,-0.20134634414679572,-0.021462634952356646,-0.3481142420795128,0.21757140129969552,0.17164486859838277,-1.1815126998540184,-0.75717564491735612,-1.514351289834712,-1.8929391122933901,-1.4954660483210402,-0.95688197402057584,0.51871592852508219,-0.013487393259873779,0.016024113391513141,-0.053133343762261219,-0.035011819736831921
-0.030396676592947671,-0.27674413254783531,0.12543679814,-0.91403846364904162,0.095642867006439272,-0.21087038840690397,-0.030584254807108219,-0.39511812440160987,0.21951006911200549,0.16948974874153794,-1.1920405570418631,-0.76517645584251615,-1.5303529116850323,-1.5303529116850323,-1.4921619098762904,-0.96443429046571416,0.45966217491300876,-0.014989376250203863,0.017589379931836076,-0.051959393857019226,-0.036283598800844377
-0.031825382174679208,-0.27604908658915511,0.12603179525000002,-0.91970009212312387,0.093094179105846941,-0.21690675448725427,-0.036620620887458488,-0.41286475723004196,0.1738377925179124,0.16778116315367436,-1.770035822271137,-0.37318493814224429,-1.492739752568977,-1.8659246907112215,-1.4794173758751183,-0.96915448824392747,0.36967550274222577,-0.014363550004233092,0.016513259185364115,-0.051861564698249207,-0.03462050310175141
-0.034258043030059922,-0.27507602224700284,0.12696253147,-0.92871675969295842,0.089204076520732298,-0.22656494021581475,-0.045876382210662273,-0.45546331473655727,0.17350983418535515,0.1711051665761491,-1.1777976759292543,-0.75057800987707157,-1.8764450246926789,-1.5011560197541431,-1.4860256527646156,-0.98567518046766989,0.36405133573154774,-0.014739045751815612,0.01377404273979916,-0.053818147873652689,-0.035892282165763872
-0.036628922022446851,-0.27431919442532882,0.1277882682,-0.93710435743233944,0.085984681277878783,-0.2353512063994358,-0.054260223988926645,-0.50104638565974269,0.15249237824426948,0.16454843992248064,-1.7745079196687781,-0.37746016941893401,-1.8900983923833357,-1.5070431323870705,-1.5011302856548945,-0.98520316068984937,0.40342050480626773,-0.013925471632053581,0.0097630472302221993,-0.053035514603490971,-0.035109648895602169
-0.039571283247526387,-0.27358553480227749,0.12873974506000002,-0.94695978477611198,0.081960437224311913,-0.24541181653335298,-0.064186692654391572,-0.54599512469961287,0.13103882992790708,0.17229702226411836,-1.779002672329272,-0.81585980410000614,-1.6317196082000123,-1.6317196082000123,-1.5134027998782462,-1.0036119320248758,0.39779633779558971,-0.014113219505844841,0.0076108057372782437,-0.051763735539478731,-0.033837869831589928
-0.042158398760391597,-0.27307583443257866,0.12950585245000001,-0.95450862274155479,0.078472759044553961,-0.25392979978006947,-0.072168110027299198,-0.58559569037557357,0.10844364636584697,0.1674646311170821,-1.7666965138938815,-0.75427226437540784,-1.8856806609385197,-1.8856806609385197,-1.4817774747642227,-1.0040839518026985,0.27125258005543229,-0.012110575518737676,0.0049694184504837507,-0.051763735539478738,-0.035011819736831921
-0.045100759985471139,-0.27263563865874785,0.13031214483,-0.96226715065048218,0.074314373522534866,-0.26264899522946439,-0.080887305476694052,-0.61140894834210957,0.08734413547744424,0.1612714881432025,-1.7786954887206037,-1.1395606936331133,-1.899267822721856,-1.899267822721856,-1.4643127429848395,-1.015412426470407,0.19532632541132477,-0.012235740767931946,0.0041867851803222764,-0.050491956475466733,-0.034522673942981398
-0.048691830771985536,-0.27226494748078511,0.1312234367,-0.97044505844637874,0.069351139189802388,-0.27270960536338157,-0.090679632673706767,-0.65795916137058452,0.043863944091372307,0.15829868127818247,-1.7865103145468715,-0.76459936621404534,-1.9114984155351136,-1.5291987324280909,-1.4548723474284149,-1.0191885846929774,0.10815173674588736,-0.012986732263096988,0.0040889560215518067,-0.052350710492099731,-0.035403136371912891
-0.051804092120298011,-0.2720718791589295,0.13195454426,-0.97694544669439898,0.064924470730878842,-0.28089223493896753,-0.098996403717744985,-0.67308171612400003,0.021712313423354834,0.15671324836891207,-1.1790784036716373,-1.1229890316489006,-1.4973187088652011,-1.8716483860815014,-1.4378796354268499,-1.0475097713622508,0.054722150144478829,-0.013111897512291259,0.0047737601329432625,-0.053133343762261205,-0.034718332260521421
-0.055063085393220752,-0.27197920636443879,0.13267657779,-0.98386521482938816,0.060497802271955281,-0.28934314745145795,-0.1073131747617832,-0.72121178240262729,0.021664963926096278,0.15407398712483436,-1.780232468519602,-1.1457026318833525,-1.9095043864722543,-1.9095043864722543,-1.4232470223143916,-1.0564781471408526,0.023789231585769319,-0.014488715253427362,0.0055563934031047438,-0.054796439461354186,-0.036185769642074365
-0.058739106241351619,-0.27192514723431921,0.13344657405000002,-0.99141405279483119,0.055802850876127262,-0.29873305024311397,-0.11630065314808252,-0.74845622508840015,0.010899008049467784,0.1551915018277823,-1.1954297868953532,-0.76216743438766477,-1.9054185859691621,-1.9054185859691621,-1.4204149036474645,-1.0456216922509647,0.037849649112457841,-0.014989376250203863,0.0068281724671167623,-0.053818147873652689,-0.035011819736831915
-0.063148786712533822,-0.27197920636443879,0.13431638464000001,-1.0006404103081503,0.050571333606490333,-0.30973265065619676,-0.12689782915580861,-0.78483238064969807,-0.021800899462491613,0.15369327333065166,-1.7758335490766448,-1.1385106492252504,-1.8975177487087505,-1.8975177487087505,-1.4208869234252872,-1.0862153931435898,0.16158132334728278,-0.014801628376412601,0.0061433683557257437,-0.052448539650870207,-0.036577086277154877
-0.067164607807130558,-0.27215682922054596,0.13506434397,-1.0086086281605622,0.04614466514756678,-0.31952497785320949,-0.13642187341591688,-0.8312045429519489,-0.043747607523786786,0.15053563746828874,-1.7817721068399317,-0.7624760934585767,-1.9061902336464418,-1.9061902336464418,-1.3987019938676883,-1.1249210149249309,0.09971548622987686,-0.012986732263096988,0.0047737601329432694,-0.053133343762261212,-0.036381427959614396
-0.07101052877849437,-0.27240395667252115,0.13574748880000001,-1.0157380862390359,0.041852138157095445,-0.32864659770796101,-0.1454093518022162,-0.85430976646485834,-0.065716135881912177,0.14707603499047289,-1.784344097293826,-1.1482313360717462,-1.9137188934529097,-1.9137188934529097,-1.3760450445322689,-1.1187847578132541,0.023789231585769319,-0.01286156701390301,0.0028171769575397951,-0.051763735539478738,-0.035696623848223398
-0.075312090989437419,-0.272743756918987,0.13646433717000001,-1.0228675443175097,0.037157186761267433,-0.33830478343652159,-0.15520167899922899,-0.89496831704818403,-0.087313982151042344,0.14289583450805524,-1.1853876264300642,-0.76172692610284953,-1.9043173152571238,-2.2851807783085483,-1.347251838085175,-1.1324733313700692,0.012540897564426359,-0.012798984389305728,0.0028171769575397951,-0.052742027127180693,-0.035794453006993396
-0.080161967234450404,-0.27326118002156002,0.13722914827000002,-1.0306260722264371,0.031791528023178271,-0.34890195944424762,-0.16566471353850284,-0.91202155587795319,-0.10857399474737538,0.1457964541239769,-1.7688200687443063,-0.75483386457225077,-2.2666219135610564,-1.8849643415863233,-1.3382834623065731,-1.1589064389280588,0.088467152208520805,-0.012486071266320488,0.0024258603224592765,-0.054013806191192934,-0.035403136371912655
-0.085135407205451,-0.27391761231586914,0.13797581131,-1.03817491019188,0.026157586348184655,-0.3593649939835214,-0.17585946514087214,-0.98070234145694846,-0.15255369755996975,0.14266599286247705,-1.1834809827294646,-1.1619995834448509,-1.9366659724080844,-1.9366659724080844,-1.3217627700828285,-1.1730670322626946,0.049097983133800802,-0.013362228010679508,0.0036976393864712881,-0.053720318714882212,-0.037359719547316358
-0.089267069293161111,-0.27451226274718443,0.13856821584000001,-1.0444656084964159,0.021730917889261098,-0.36781590649601198,-0.18417623618491047,-0.97980178834266274,-0.15241361151996977,0.13522549995695593,-1.773591334999528,-1.1388385801686298,-1.8980643002810498,-1.8980643002810498,-1.2750328120785286,-1.1947799420424707,-0.021204104499615621,-0.013111897512291259,0.0046759309741732577,-0.053915977032422686,-0.036772744594695365
-0.094194172866916351,-0.2752690905688584,0.13923839777000002,-1.0511756866879207,0.016633542088076395,-0.37774237516147685,-0.19396856338192309,-0.99888075167585344,-0.1737183915958006,0.13850663141777805,-1.1792133791628709,-1.1313436484575514,-2.2626872969151024,-1.8855727474292518,-1.2415194078532212,-1.2150767924887833,-0.040888689036982166,-0.014050636881247559,0.0038932977040117764,-0.054405122826273668,-0.035794453006993403
-0.10008661804994964,-0.27628076857538181,0.13999154226000002,-1.0589342145968479,0.010865458944630549,-0.38914439997991623,-0.20537058820036255,-1.0679985849630975,-0.19616300540138526,0.13170681747673216,-1.183616968134811,-1.1416006763958679,-1.9026677939931136,-1.9026677939931136,-1.2183904387399815,-1.2514223153810178,-0.018392020994283154,-0.015490037246980653,0.0032084935926203137,-0.054894268620124198,-0.036185769642074372
-0.10537669006879344,-0.27730016931477947,0.14063190952000001,-1.0660636726753219,0.0057680831434458475,-0.39933915158228572,-0.21529705686582756,-1.0893563787006233,-0.21787127574012463,0.12799681954574171,-1.1831411558809233,-1.1349809916837326,-2.2699619833674651,-1.8916349861395545,-1.1796848169586402,-1.2726632053829736,0.029413398596447347,-0.015364871997786675,0.002523689481229302,-0.053915977032422686,-0.036381427959614403
-0.11039646643703936,-0.27832729278705132,0.14121005486000002,-1.0727737508668267,0.001073131747617832,-0.40859491290548944,-0.22455281818903128,-1.1110158986368204,-0.23963088009813774,0.12432548794142981,-1.7745079196687781,-1.1373316599440368,-1.8955527665733944,-1.8955527665733944,-1.1315387996208768,-1.2844636998285048,0.0097288140590807964,-0.014426132628830081,0.0017410562110678207,-0.052448539650870207,-0.036479257118384872
-0.11594138864073257,-0.27952431638255615,0.14182708890000001,-1.079693519001816,-0.0041583855220190986,-0.41878966450785898,-0.23447928685449632,-1.1294281288834094,-0.260637260511556,0.12395536568958608,-1.1794834228748221,-1.1199988053451502,-2.2399976106903008,-2.2399976106903008,-1.0980253953955694,-1.3208092227207371,-0.035264522026304139,-0.014739045751815612,0.002523689481229302,-0.052399625071484976,-0.037212975809161108
-0.12249026611807495,-0.28103024929302989,0.14251412260000001,-1.0878714267977123,-0.010060610133917175,-0.43032583079475056,-0.2460154531413879,-1.1600473305055552,-0.28453991125607958,0.12123972343218141,-1.1886019123841527,-0.76335935565777568,-2.2900780669733276,-2.2900780669733276,-1.0909450987282516,-1.3642350422802894,0.068782567671167347,-0.014676463127218623,0.0018388853698378255,-0.053133343762261205,-0.038435840293788347
-0.12836726583535979,-0.28248984580625836,0.14310263826000003,-1.0950008848761861,-0.015426268872006335,-0.44038644092866785,-0.25621020474375744,-1.2043090664057108,-0.30655139872145365,0.12128870635172574,-1.1890821278630104,-0.75979472359226907,-2.2793841707768077,-1.8994868089806729,-1.0418550418348449,-1.3916121893939222,0.032225482101779813,-0.014300967379636102,0.001349739575987309,-0.054307293667503205,-0.037555377864856847
-0.13352605139534177,-0.28384132405924761,0.14359393217000002,-1.1010818932372373,-0.020255361736286583,-0.44923977784651487,-0.26506354166160445,-1.2181902601486023,-0.32630096253980417,0.11319309826548166,-1.1813094579905112,-1.1375934464925339,-2.2751868929850674,-2.2751868929850674,-0.9913489256079725,-1.3953883476164901,0.043473816123135868,-0.012798984389305728,0.0015453978935273463,-0.053426831238571712,-0.037164061229775891
-0.14044562005064692,-0.28575656181205533,0.14422263282,-1.1088404211461649,-0.026694152221993572,-0.46104422707031101,-0.27673384941694834,-1.2290430485359036,-0.35115515672454378,0.11051760890315865,-1.7877505160842173,-1.148965413992052,-1.9149423566534201,-1.9149423566534201,-0.95264330382663354,-1.4326779100643678,0.037849649112457841,-0.01323706276148553,0.0016432270522978021,-0.053035514603491193,-0.037457548706086377
-0.14661608361715231,-0.28754051310600115,0.14475411172000002,-1.1151311194507005,-0.032193952428534955,-0.47137312014113264,-0.28719688395622223,-1.2624209203605381,-0.37001992493326119,0.10960455464716008,-1.181987202946329,-1.1456362374331972,-2.291272474866394,-2.291272474866394,-0.94745108627059971,-1.4605270769558187,0.074406734681832287,-0.01354997588447077,0.0035019810689307929,-0.054698610302584168,-0.03804452365870737
-0.15338892034784721,-0.28959476005054491,0.14531410900000002,-1.1218411976422054,-0.038230318508885267,-0.48264100349111994,-0.29833062583775727,-1.310463739019962,-0.39313912170598864,0.10265094386873921,-1.1860700602967482,-1.1397577926288409,-2.2795155852576823,-1.8995963210480689,-0.88325639648691423,-1.493096441625485,-0.038076605531649703,-0.013862889007456301,0.0019367145286082951,-0.054111635349963175,-0.038729327770098826
-0.15846275584621272,-0.29117792028976092,0.14570688487000003,-1.1266640663423493,-0.042791128436261053,-0.4909577745351581,-0.3067815383502478,-1.3271094391113101,-0.41336195644450635,0.098598844405895197,-1.1814449447961073,-1.1274722774693311,-2.2549445549386622,-2.2549445549386622,-0.80301303425730475,-1.5015927976262666,-0.088694108627712667,-0.01354997588447077,0.0018388853698378393,-0.054502951985043693,-0.037946694499937358
-0.16597697493283317,-0.29357969021364472,0.14625003038000001,-1.1335838344773388,-0.049229918921968041,-0.50303050669585869,-0.31898841197940053,-1.3300841657119959,-0.43609316908590035,0.095159859905741717,-1.1840931632481473,-1.1441112861361913,-2.2882225722723821,-2.2882225722723821,-0.71616139513819999,-1.5327461029624672,-0.091506192133045131,-0.013862889007456301,0.0021323728461483324,-0.054698610302584175,-0.036772744594695372
-0.1726725843347858,-0.29582700548004409,0.14670891704000003,-1.1398745327818744,-0.055132143533866119,-0.51376182417203708,-0.32958558798712667,-1.3688942098577077,-0.47802654947412015,0.091180192225085929,-1.7699344456490131,-1.1263160274126738,-2.2526320548253476,-2.2526320548253476,-0.67084749646736364,-1.564843447854309,-0.063385357079681182,-0.015239706748592404,0.0021323728461483393,-0.053329002079801693,-0.038435840293788354
-0.18036442627751342,-0.29856085291751955,0.14721187756000001,-1.1472136808038329,-0.061973358424929799,-0.52610283926964208,-0.34192660308473172,-1.3534445970233788,-0.50208428599254373,0.087940958052822371,-1.1854558344757762,-1.1422602942825011,-2.2845205885650022,-2.2845205885650022,-0.62883773624127481,-1.590804535634478,-0.097130359143723158,-0.014300967379636102,0.0021323728461483255,-0.053133343762261212,-0.03755537786485684
-0.18567766649497988,-0.30053014980044679,0.14753724635000001,-1.1522462394474613,-0.066668309820757818,-0.53462082251635867,-0.35044458633144826,-1.3688158126175809,-0.52145364290193552,0.080233973856022003,-1.1798887204257786,-1.1199353565118539,-2.2453007422013003,-1.8611288983421646,-0.60476472757239197,-1.5964687729683322,-0.10275452615440119,-0.013925471632053581,0.001643227052297809,-0.053133343762261212,-0.03784886534116734
-0.19297564906112205,-0.30332577910091607,0.14796113318000001,-1.1589563176389661,-0.07297295883801258,-0.54635820100592869,-0.36204782335256613,-1.3870478238538619,-0.54181555619291488,0.080032300342759211,-1.1769229904229945,-1.1268296234124058,-2.253659246824812,-1.8780493723540099,-0.55803476956809206,-1.622429860748499,-0.13649952821844316,-0.012986732263096988,0.0014475687347573138,-0.053133343762261205,-0.038240181976247851
-0.19986432678493032,-0.30605962653839153,0.14833964986000001,-1.1646179461130481,-0.079009324918362878,-0.55708951848210697,-0.37318156523410095,-1.3848327243804175,-0.5625882942795446,0.072640445160554401,-1.1750434578996474,-1.109314792275812,-2.218629584551624,-2.218629584551624,-0.49572815889569066,-1.621485821192856,-0.20398953234652711,-0.01354997588447077,0.0013497395759873229,-0.051959393857019226,-0.037848865341167354
-0.20782646437825578,-0.30934178800993695,0.14874020347000003,-1.170908644417584,-0.085984681277878783,-0.56943053357971196,-0.38552258033170606,-1.3959795409970597,-0.61074104918621352,0.069563886549186466,-1.1845016355634173,-1.2464753413081493,-2.0774589021802496,-2.0774589021802496,-0.43294952844546658,-1.6299821771936396,-0.23211036739990418,-0.013988054256650572,0.0016432270522978021,-0.053231172921031231,-0.038044523658707377
-0.21484642856092587,-0.31235365383088454,0.14906168339,-1.1763605829481816,-0.09215518882668132,-0.58016185105589035,-0.3963880392763367,-1.4095256592745435,-0.60718028399518786,0.06551840140040012,-1.1775957100517014,-1.1242663167167455,-2.2485326334334905,-2.2485326334334905,-0.39329986710848447,-1.6398945925278845,-0.17586869729316318,-0.015427454622383664,0.00086059378213632076,-0.053915977032422693,-0.038631498611328363
-0.21989709586066869,-0.31458552363153541,0.14927946011000001,-1.1803446918743876,-0.096581857285604894,-0.58780791475766758,-0.40416824444656602,-1.4157567693769744,-0.6316453278758809,0.062152037332070281,-1.1828015241333403,-1.1730314432532634,-2.3460628865065263,-2.3460628865065263,-0.33571345421429644,-1.6568873045294474,-0.15055994574511861,-0.015114541499398134,0.0025236894812293159,-0.054013806191192712,-0.038044523658707377
-0.22897130698788248,-0.31872490845211976,0.14963982873000001,-1.1876838398963458,-0.10422792098738193,-0.60155741527402085,-0.41791774496291939,-1.448920362190087,-0.67039598847601045,0.054449278558399365,-1.1743736503080726,-1.1165828248035723,-2.0470685121398824,-2.0470685121398824,-0.28426329843178316,-1.6413106518613481,-0.1589961962611422,-0.014801628376412601,0.0024258603224592834,-0.053720318714882212,-0.038044523658707377
-0.23558196632821868,-0.3218371698004322,0.14988223496000003,-1.1927163985399747,-0.10972772119392332,-0.61141681320525976,-0.42791128436261044,-1.4392729011584997,-0.69782928541018152,0.05124581522676324,-0.59211464469030639,-1.5174024840747797,-2.276103726112169,-2.276103726112169,-0.23517324153837429,-1.6601914429741971,-0.16180827976647466,-0.013988054256650572,0.001643227052297809,-0.052937685444720731,-0.03814235281747784
-0.24382984503789046,-0.32582982269640631,0.15015575215000002,-1.1990070968445103,-0.11643479461653476,-0.6236236868344126,-0.44025229946021549,-1.4702921051539044,-0.72417372343401254,0.044201929372975478,-0.5958478987550474,-1.14716525927855,-1.9119420987975833,-2.2943305185570999,-0.19741165931267624,-1.6828483923096165,-0.14774786223978614,-0.014426132628830081,0.0012519104172168324,-0.053426831238571712,-0.038044523658707377
-0.25056406810421422,-0.32918148876381975,0.15036056597000003,-1.2042493454316234,-0.12193459482307616,-0.63368429696832962,-0.45017876812568053,-1.4697082644759856,-0.7348541322379929,0.043534606904802604,-1.1737046058995337,-1.110249293111718,-2.2204985862234361,-2.2204985862234361,-0.1365211079737384,-1.6809603131983302,-0.11119077667041169,-0.015302289373189393,0.0023280311636888137,-0.053133343762261212,-0.039414131881489844
-0.25886600594400555,-0.33344443731039164,0.15058482414000002,-1.2103303537926746,-0.1286416682456876,-0.64575702912903066,-0.46251978322328574,-1.4626775183508285,-0.76408527078028343,0.036644174387156184,-1.1855240503714188,-0.81254002931143643,-2.031350073278591,-2.031350073278591,-0.046837350187706538,-1.6729359769753693,-0.15618411275579663,-0.013675141133665039,0.00066493546459584635,-0.052937685444720731,-0.038924986087638863
-0.26454221460656058,-0.33643313493271654,0.15072093459000002,-1.2143144627188807,-0.13333661964151564,-0.65420794164152096,-0.47097069573577605,-1.4791462167505862,-0.7830774088679574,0.0365118090992489,-1.1812417262401536,-1.123435751159132,-2.2468715023182639,-2.2468715023182639,-0.018516163518432972,-1.6866245505321846,-0.15055994574511861,-0.012924149638499999,0.00056710630582582078,-0.053231172921031231,-0.040294594310421344
-0.27278237058335814,-0.34094321093126367,0.15089723003000002,-1.2199760911929627,-0.14031197600103157,-0.6664148152706737,-0.48331171083338109,-1.4654603582531389,-0.80928407843830064,0.029371113865667344,-1.187779587624936,-1.1424583283141039,-2.2849166566282073,-2.2849166566282073,-0.016628084407148948,-1.7040892823115701,-0.14212369522910812,-0.014363550004233092,-0.0003133561231056653,-0.051959393857019233,-0.040588081786731851
-0.28006490768375186,-0.34504398208747689,0.15103074790000001,-1.2245892699496221,-0.14648248354983406,-0.67701199127839973,-0.49417716977801163,-1.4742436234268801,-0.84552207814188718,0.025473554131664671,-1.1773265299362545,-1.4979994629951692,-1.8724993287439613,-2.2469991944927532,0.039542269153575525,-1.696064946088609,-0.19836536533584909,-0.014238384755038821,-0.0003133561231056653,-0.051470248063168231,-0.040392423469191807
-0.28783397695522173,-0.34950772168877864,0.15115000658000002,-1.2294121386497663,-0.15305541550399329,-0.68854815756529142,-0.50571333606490332,-1.461080066327568,-0.82867227642459074,0.02196249224004139,-0.59211464469030639,-1.1305025969661606,-2.2647972776638317,-1.8803789112120906,0.12639390827268243,-1.6667997198636946,-0.25179495193725765,-0.014739045751815612,0.0012519104172168394,-0.051714820960093957,-0.039560875619645108
-0.29439057716543832,-0.35338453359163935,0.15122908027000001,-1.2336059375194568,-0.15868935717898691,-0.69834048476230415,-0.51577394619882033,-1.4453377200100679,-0.85406319818776721,0.014703358635419071,-1.1892194035646799,-1.5259232691248696,-2.288884903687304,-2.288884903687304,0.17029174761005525,-1.6663277000858718,-0.27991578699063469,-0.014300967379636102,0.00056710630582583466,-0.052252881333329719,-0.040783740104272333
-0.30146460047822798,-0.35770926400120506,0.15129130219,-1.2382191162761165,-0.16459158179088498,-0.70893766077003018,-0.52650526367499872,-1.4518998065859769,-0.8884760010451499,0.0109122487433598,-1.1767885387190562,-1.1206972172985967,-2.2413944345971935,-2.2413944345971935,0.18303628161122737,-1.6743520363088329,-0.29116412101197764,-0.014864211001009882,0.00046927714705580909,-0.051372418904398226,-0.039609790199030326
-0.30965069732490597,-0.36286804956118701,0.15133667234000001,-1.2432516749197449,-0.17156693815040089,-0.72114453439918313,-0.53884627877260383,-1.4522114987504013,-0.92413459011389165,0.0036933213229323751,-0.59743756372098711,-1.1503025086202285,-2.3006050172404571,-2.3006050172404571,0.24675895161709233,-1.6441427705282752,-0.33334537359203009,-0.015114541499398134,-0.00011769780556562803,-0.051470248063168245,-0.03931630272271984
-0.31674788883631827,-0.36744763015560217,0.15134963524,-1.2476551637329198,-0.17773744569920341,-0.73174171040690916,-0.54957759624878222,-1.4412611904365635,-0.93900350286018541,0.0018243820319464843,-1.1858652476460325,-1.5268071449758454,-2.290210717463768,-2.290210717463768,0.31944999740156138,-1.6191257223037514,-0.34178162410804058,-0.014551297878024352,0.00017578967074532992,-0.050296298157926245,-0.04019676515165134
-0.32279478867683603,-0.37145572851732467,0.15134445008000003,-1.2512198927721567,-0.18296896296884035,-0.74072918879320837,-0.55869921610353379,-1.4192605127486697,-0.9388954161260431,-0.0018302076866701157,-0.59286437258574154,-1.1383795297217121,-2.2767590594434237,-2.2767590594434237,0.36523591585022042,-1.5993008916352593,-0.40364746122545964,-0.014613880502621341,-0.00041118528187614189,-0.050785443951777233,-0.040098935992881314
-0.32977613919513499,-0.37622837743359544,0.15132241315,-1.2552040016983628,-0.18913947051764288,-0.75105808186403011,-0.56929639211125982,-1.4000824055531789,-0.96928781922912377,-0.0036155252512348841,-0.58485314674826883,-1.4860073599539407,-1.857509199942426,-2.2290110399309113,0.3940291222973144,-1.5893884763010144,-0.44864079731084455,-0.014300967379636102,-0.00060684359941616528,-0.050394127316696256,-0.040979398421812814
-0.33764560399396981,-0.38183508150028245,0.15127056155000002,-1.2596074905115378,-0.19584654394025436,-0.76286253108782653,-0.58123498280350838,-1.4088814151293001,-1.0187296386319555,-0.010914742544135292,-0.58852873642674164,-1.1297919141128845,-2.2595838282257685,-1.8829865235214736,0.38553276629653299,-1.5912765554122983,-0.5498758035029836,-0.014801628376412601,-0.00011769780556562803,-0.052057223015789245,-0.040783740104272326
-0.3445497271835265,-0.38691663973152218,0.15120185818000001,-1.2638012893812283,-0.2017487685521524,-0.77319142415864794,-0.5918321588112343,-1.3872855763090994,-1.0404641822318246,-0.014553821563249915,-0.58856236279723795,-1.0942709461500746,-1.8237849102501242,-2.1885418923001492,0.4147979925214475,-1.5497388149640301,-0.61174164062040259,-0.015427454622383664,-0.00090033107572666526,-0.051372418904398233,-0.042544664962135319
-0.35088236814039059,-0.39165839771629601,0.15111759933000002,-1.2675757083639498,-0.2071144272902416,-0.78284960988720853,-0.60162448600824703,-1.3812351424015012,-1.0304452649661993,-0.018400441010748961,-0.59529695294020224,-1.1443099625577247,-2.2886199251154493,-2.2886199251154493,0.47804864274949199,-1.4992326987371598,-0.67360747773780849,-0.013362228010679508,-0.0020742809809686583,-0.048828860776373759,-0.040979398421812821
-0.35760114574096591,-0.39680946054340377,0.15100871097000002,-1.2711404374031867,-0.21301665190213964,-0.79304436148957769,-0.61208752054752091,-1.3667024762188691,-1.0412971247381859,-0.025489577067131751,-0.58903353577751949,-1.1270865971007553,-2.2541731942015106,-2.2541731942015106,0.51817032386429673,-1.4765757494017406,-0.68485581175916455,-0.013862889007456301,-0.0021721101397391279,-0.049807152364075256,-0.039903277675340833
-0.36522348308782554,-0.40290269678116691,0.15086093391000002,-1.2751245463293925,-0.2197237253247511,-0.8045805277764696,-0.62389196977131711,-1.3380049953297306,-1.0967254060079759,-0.029454322964847367,-0.59557229843184889,-1.1459682866585847,-1.9099471444309746,-2.2919365733171695,0.52477860075379412,-1.4694954527344228,-0.828272070531343,-0.015051958874801144,-0.0016829643458881466,-0.049415835728994752,-0.0430338107559863
-0.37175691509941944,-0.40828544159450136,0.15070537911000001,-1.2784795854251449,-0.22549180846819694,-0.81464113791038661,-0.63408672137368649,-1.3220299571107124,-1.1053037346335464,-0.032740486503856046,-0.58846149521149727,-1.1245221224770903,-2.2490442449541805,-2.2490442449541805,0.5474355500892113,-1.4284297320639772,-0.96043999528219148,-0.014926793625606873,-0.0028569142511301326,-0.050247383578541464,-0.041223971318738083
-0.3773558964332322,-0.41298858591490412,0.15054723173000001,-1.2812055546904439,-0.2304550428009294,-0.82309205042287714,-0.6428059168230813,-1.305129014779929,-1.1093596625629396,-0.040162990009173789,-0.59062086312007678,-1.1214601153362405,-1.8691001922270676,-1.8691001922270676,0.60030176520518808,-1.3816997740596748,-0.94075541074482494,-0.015552619871577933,-0.0022699392985091396,-0.049709323205305259,-0.040098935992881321
-0.38445308794464456,-0.41914360401566103,0.15030612179000002,-1.2847702837296808,-0.23702797475508866,-0.83409165083596004,-0.65407380017306871,-1.2741167713887773,-1.1203440576004766,-0.047935333019687318,-0.59646893304442716,-1.1502355799818031,-1.9170592999696721,-1.9170592999696721,0.62767891231882078,-1.3453542511674403,-0.91544665919679347,-0.015490037246980653,-0.0021721101397391418,-0.050296298157926238,-0.041272885898123314
-0.389387914251274,-0.42354556175396901,0.15011945603000001,-1.2872865630514949,-0.24158878468246442,-0.84200599747464144,-0.66198814681175011,-1.2567967010443333,-1.1484521578508562,-0.050920918865661413,-1.1767213243862531,-1.1145683550288803,-2.2315234342076908,-1.8552272008982027,0.62767891231882078,-1.318921143609453,-0.92669499321814952,-0.015552619871577933,-0.0020742809809686652,-0.049807152364075485,-0.040881569263042566
-0.39775935668693335,-0.43129146282681619,0.14976945773000003,-1.291270671977701,-0.24923484838424148,-0.85515186138295995,-0.67553643512542527,-1.2481741638925197,-1.1824807868455449,-0.055134412337662343,-0.59457538087603223,-1.1441112861361913,-1.906852143560319,-2.2882225722723826,0.65411201987680812,-1.2627507900487285,-0.93513124373416001,-0.015740367745369195,-0.0022699392985091327,-0.050883273110547245,-0.042446835803365307
-0.40253200560320412,-0.43581698429111176,0.14955168101000002,-1.2937869512995153,-0.25352737537471287,-0.86279792508473674,-0.68318249882720228,-1.2225364332484534,-1.1788744177752946,-0.058630679019449884,-0.59276202518570942,-1.1344599399258151,-1.8907665665430247,-1.8907665665430247,0.69895389876982406,-1.2032762980432543,-0.92950707672348198,-0.015740367745369195,-0.0028569142511301326,-0.049904981522845733,-0.041566373374433814
-0.40932801053252171,-0.44241219816569949,0.14921075674000001,-1.2969323004517832,-0.25996616586041982,-0.87379752549781953,-0.69445038217718935,-1.2061887325594165,-1.1623273241027103,-0.062579581839990753,-0.59546901402839802,-1.1468990493210682,-1.9114984155351133,-1.9114984155351133,0.73057922388384744,-1.1683468344844834,-0.92950707672348198,-0.01380030638285931,-0.0033460600449811209,-0.04951366488776477,-0.041370715056893319
-0.41518184205118386,-0.44826602968436169,0.14888798053000002,-1.2994485797735973,-0.26573424900386566,-0.88332156975792797,-0.7042427093742023,-1.17542484549309,-1.17542484549309,-0.065766505967066388,-0.29560703858803505,-1.1329645775200441,-1.88827429586674,-1.88827429586674,0.73341134255077456,-1.145689885149064,-0.88451374063808397,-0.014300967379636102,-0.0020742809809686583,-0.04961149404653524,-0.040294594310421344
-0.42171527406277781,-0.45502342094930809,0.14849520466000002,-1.3023842389823808,-0.27203889802112041,-0.89418702870255862,-0.71510816831883273,-1.1430396388670554,-1.2089842334170779,-0.070103985094733187,-0.59684909170156197,-1.1493662158806539,-1.9156103598010898,-1.9156103598010898,0.75606829188619162,-1.107928302923366,-0.8592049890900525,-0.01361255850906805,-0.0014873060283476722,-0.048731031617603275,-0.040881569263042337
-0.42608634086958885,-0.45965706067384282,0.14821520602000002,-1.304061758530257,-0.27633142501159175,-0.90156480946743112,-0.72262009055215759,-1.1136377273374138,-1.2009818628148581,-0.073305221883273861,-0.5928984962402013,-1.1389041890279554,-1.8981736483799254,-1.8981736483799254,0.78816563677803542,-1.0588382460299595,-0.84514457156337708,-0.01323706276148553,-0.0028569142511301396,-0.049122348252684252,-0.041762031691974295
-0.43190155872387992,-0.46596653343208422,0.14781465241000002,-1.3061586579651021,-0.28196536668658534,-0.91122299519599159,-0.73281484215452686,-1.0894189422417846,-1.1983608364659628,-0.076802502369055822,-0.29636976118524411,-1.130761248821555,-1.8846020813692581,-2.2615224976431101,0.80185421033485071,-1.0394854351392899,-0.78046665094062562,-0.01373772375826232,-0.0035417183625216023,-0.04892668993514377,-0.040979398421812814
-0.43761638105080608,-0.47237640171769057,0.14739076558000003,-1.3082555573999475,-0.28759930836157904,-0.92101532239300443,-0.7428754522884442,-1.0659776001988461,-1.218260114512967,-0.080335192241527631,-0.58970116199477907,-1.1358287223870869,-1.8930478706451446,-1.8930478706451446,0.80043815100138704,-1.0399574549171102,-0.88451374063808397,-0.014739045751815612,-0.0039330349976021001,-0.049415835728994752,-0.040196765151651333
-0.44204922972061095,-0.4774888508804272,0.14704076728000001,-1.3099330769478237,-0.29202597682050252,-0.92872845682900751,-0.75072272819289965,-1.0448220848827467,-1.2189590990298711,-0.084034979846807051,-0.59102751010828269,-1.1168351456498076,-1.6712788277212403,-2.0515049911114516,0.81790288278077261,-1.0017238529135917,-0.81421165300466758,-0.014488715253427362,-0.0035417183625216092,-0.047703825450516546,-0.039952192254726071
-0.44784127937627932,-0.48434663767273856,0.14654947337000002,-1.3118202864391844,-0.29806234290085282,-0.93899027916560296,-0.76111869199794724,-1.0132639849346128,-1.2115112863348632,-0.08873749695175058,-0.58875969032479269,-0.77194396271490073,-1.9298599067872519,-1.9298599067872519,0.84291993100529639,-0.97340266624431826,-0.80858748599398955,-0.014926793625606873,-0.0028569142511301257,-0.048339714982522777,-0.04049025262796184
-0.45272976928566344,-0.49035492384888524,0.14610354961000002,-1.313707495930545,-0.30329386017048976,-0.94770947461499788,-0.76983788744734216,-0.98273465116754311,-1.244797224812221,-0.091642076689500376,-0.5929667553348642,-0.7824852624491776,-1.9562131561229443,-1.5649705248983552,0.85094426722825733,-0.95593793446493269,-0.87045332311140855,-0.015427454622383664,-0.0031504017274406187,-0.048926689935143777,-0.03902281524640934
-0.45782677298265162,-0.49684201946323381,0.14560707054000002,-1.3155947054219057,-0.30879366037703115,-0.95696523593820171,-0.77936193170745049,-0.96133881062176207,-1.2453707319418281,-0.095351670266067737,-0.2955307113173416,-1.1400864425113753,-1.9001440708522921,-1.9001440708522921,0.87454525611931966,-0.92431260935091153,-0.88732582414342953,-0.014363550004233092,-0.0016829643458881466,-0.04922017741145427,-0.040001106834110851
-0.4626766492276646,-0.5032750559474628,0.14510022115000001,-1.3172722249697821,-0.31415931911512029,-0.96595271432450103,-0.7886176930306541,-0.89199159022235586,-1.2183299768890714,-0.098598844405895197,-0.29533583169463745,-1.1379863523570832,-1.8966439205951389,-1.8966439205951389,0.8868177703426714,-0.88088678979135926,-0.87888957362741904,-0.014739045751815612,-0.003346060044981114,-0.049122348252684259,-0.040685910945502307
-0.4664607883360346,-0.50846473243894175,0.1446789269,-1.3185303646306892,-0.31831770463713943,-0.97306221215246902,-0.79599547379552682,-0.87601282098084399,-1.2264179493731815,-0.099253400031749706,-0.29599545875955841,-1.1436479760006508,-1.5248639680008678,-1.9060799600010845,0.90145038345512973,-0.8289646142310233,-0.7973391519726466,-0.013925471632053581,-0.003639547521291614,-0.047165765077280784,-0.039903277675340833
-0.47068512321823541,-0.5145193550123337,0.14417596638000002,-1.3199981942350809,-0.32301265603296742,-0.98124484172805504,-0.80417810337111284,-0.82323044729092076,-1.2348456709363811,-0.10181857554819553,-0.29644071696098473,-0.74797952755002817,-1.4959590551000563,-1.4959590551000563,0.90192240323295014,-0.80677968467342664,-0.78046665094062562,-0.013675141133665039,-0.0032482308862111023,-0.048046227506212277,-0.040196765151651326
-0.47537282207288967,-0.52147753733200997,0.14357967298000002,-1.3214660238394724,-0.32837831477105656,-0.99050060305125887,-0.81343386469431667,-0.82591873921275294,-1.2388781088191294,-0.1094475730449728,-0.29565794534247752,-0.75561284688863084,-1.5112256937772615,-1.8890321172215772,0.91183481856719517,-0.77043416178119206,-0.84514457156337708,-0.014926793625606873,-0.0036395475212916209,-0.047361423394821266,-0.040392423469191814
-0.47927280217437307,-0.52754760537115053,0.14304300892000002,-1.3223047836134105,-0.33293912469843234,-0.99814666675303587,-0.82134821133299796,-0.78048191828481894,-1.2357630372842967,-0.10917237484999144,-0.19690702760769338,-0.75371149922403635,-1.5074229984480727,-1.5074229984480727,0.93260368879133038,-0.72323218399906952,-0.80015123547797906,-0.014300967379636102,-0.0042265224739126209,-0.047459252553591277,-0.039903277675340826
-0.48246229085142778,-0.53274500459550356,0.14257115936,-1.3231435433873486,-0.33669508581509477,-1.0047195987071951,-0.82805528475560974,-0.73910695525862302,-1.2173526321906731,-0.10946638709030486,-0.14831639344128056,-0.75865756823805552,-1.5173151364761113,-1.5173151364761113,0.93968398545864829,-0.68783070066247809,-0.73828539836056006,-0.014363550004233092,-0.0035417183625215953,-0.047557081712361296,-0.040392423469191821
-0.48626187542554627,-0.53920120927835524,0.14197745854000002,-1.3237726132178023,-0.34125589574247062,-1.0124998038774244,-0.83610377286274318,-0.71409510214049787,-1.2334369946063144,-0.11259911212354552,-0.099672163965565788,-0.75289341761962292,-1.5057868352392458,-1.5057868352392458,0.93826792612518461,-0.65526133599281378,-0.78890290145663611,-0.01373772375826232,-0.0034438892037511326,-0.047997312926827039,-0.039756533937185583
-0.48986066894493485,-0.54562652302971004,0.14137209111000001,-1.3244016830482559,-0.34568256420139409,-1.0202800090476538,-0.84401811950142491,-0.67505205061615492,-1.2194488656291831,-0.11696520950522329,-0.12101476085709049,-0.75652369412958498,-1.5130473882591697,-1.5130473882591697,0.93449176790261446,-0.6349644855465012,-0.85639290558472003,-0.015802950369966186,-0.0036395475212916209,-0.047263594236050796,-0.039707619357800358
-0.49309649401923494,-0.55168114560310211,0.14079005690000002,-1.3250307528787093,-0.34984094972341329,-1.0272553654071697,-0.85126175879784516,-0.64817914308265689,-1.2099344004209596,-0.11967925999487443,-0.14779715731921406,-1.1143798710906001,-1.4858398281208003,-1.4858398281208003,0.94204408434775488,-0.6094754175441548,-0.89294999115409446,-0.015364871997786675,-0.0040308641563721187,-0.050394127316696263,-0.040001106834110844
-0.49586895512108153,-0.5572028996081726,0.14023394849000001,-1.3254501327656785,-0.35359691084007566,-1.0335600144244246,-0.85770054928355244,-0.58737541235446611,-1.1965054696109496,-0.12415438800963359,-0.099936824001589139,-1.1325102493782795,-1.1325102493782795,-1.5100136658377059,0.944876203014682,-0.58776250776437855,-0.90701040868078298,-0.015239706748592404,-0.0037373766800616187,-0.049122348252684259,-0.039805448516570821
-0.4990429983323878,-0.56402207273611282,0.13953006302000001,-1.3256598227091629,-0.35815772076745139,-1.0414743610631059,-0.86548075445378148,-0.54918826352964534,-1.2082141797652197,-0.1253693325130284,-0.073678847376046797,-0.76530975410437829,-1.1479646311565674,-1.1479646311565674,0.91277885812283821,-0.57029777598499309,-0.8592049890900525,-0.014300967379636102,-0.0024655976160496348,-0.048828860776373759,-0.040685910945502307
-0.50159150018088194,-0.56990679518627196,0.13890136237,-1.3258695126526474,-0.36204782335256608,-1.0483155759541696,-0.87232196934484518,-0.50774101723101517,-1.1847290402057022,-0.12986857944044358,-0.039392455233232551,-0.41980630934036756,-1.2594189280211023,-1.2594189280211023,0.89248200767652563,-0.55094496509432367,-0.80577540248865709,-0.014801628376412601,-0.0043243516326830905,-0.047850569188671796,-0.04049025262796184
-0.50435623854985423,-0.57663329551972142,0.13817673626000002,-1.3260792025961319,-0.36634035034303741,-1.0559616396559466,-0.88010217451507455,-0.48373383295572842,-1.1873466808913333,-0.12917634280456705,-0.037179888842094763,-0.76397885777238994,-1.5279577155447801,-1.5279577155447801,0.90711462078898397,-0.51271136309080512,-0.71860081382320662,-0.013988054256650572,-0.0033460600449811209,-0.048731031617603289,-0.039609790199030333
-0.50612474437805166,-0.58123604431275933,0.13767507203000001,-1.3260792025961319,-0.36929146264898643,-1.0610590154571313,-0.88533369178471144,-0.41376532899829521,-1.1759646192583129,-0.13159341398312382,-0.036994727616942787,-0.76080351413909253,-1.1412052712086389,-1.1412052712086389,0.917027036123229,-0.47872593908767724,-0.69329206227517504,-0.01323706276148553,-0.0046178391089935766,-0.047557081712361296,-0.03931630272271984
-0.50824849591846344,-0.58744512154363582,0.13698414946000001,-1.3258695126526474,-0.37318156523410106,-1.0677660888797429,-0.89217490667577515,-0.36953230341985582,-1.1738084932160127,-0.13135213802784623,0.018528229730191751,-0.75302247031376401,-1.1295337054706458,-1.506044940627528,0.89909028456602302,-0.46220524686393488,-0.65111080969512258,-0.011422166648169916,-0.0053026432203845883,-0.047948398347442266,-0.040196765151651333
-0.51003244721240926,-0.59326033939792688,0.13632433785,-1.3258695126526474,-0.37680338488231124,-1.0739365964285454,-0.89847955569302984,-0.325871201207936,-1.1731363243485695,-0.13492350176086584,0.018436315071319476,-0.75057800987707157,-1.1258670148156074,-1.5011560197541431,0.86227274189596803,-0.43718819863940894,-0.67641956124315405,-0.012047992894140687,-0.0042265224739126278,-0.047850569188671796,-0.038924986087638863
